tree
version=v4
num_class=1
num_tree_per_iteration=1
label_index=0
max_feature_idx=3
objective=binary sigmoid:1
feature_names=dist_to_goal_line dist_from_center density defenders_in_path
monotone_constraints=-1 -1 -1 -1
feature_infos=[-0.00083333333333324155:0.98083333333333345] [0:0.49125000000000008] [0:142.28361382409099] [0:4]
tree_sizes=2593 2097 2899 2813 2421 2413 2425 2824 2421 2321 2427 2438 2221 2631 2830 2543 3042 2730 2649 2118 2324 2425 2020 2637 2644 2138 2343 2443 1919 2240 2452 1925 2568 1930 1916 1912 2242 2031 1916 2352 2031 2144 1823 2145 1815 1824 2259 2140 1830 1815 2029 1822 2039 1825 1825 1725 1823 2050 2272 1832 1843 1855 1521 1853 1516 1732 1954 2178 1632 2178 1513 1744 1512 1410 1842 1528 1408 1848 1534 1297 1635 1308 1737 1507 1527 1430 1523 1525 1521 1425 2081 1421 1415 1419 1528 1531 1318 1427 1215 1424

Tree=0
num_leaves=24
num_cat=0
split_feature=0 1 1 0 0 1 0 1 2 2 0 1 0 1 0 1 1 0 0 0 0 0 1
split_gain=2959.43 1029.03 386.263 308.522 291.769 207.737 72.6678 26.0565 20.6495 27.5983 16.2586 16.2784 11.6736 6.5444 24.7389 3.66493 2.07099 0.927749 0.845429 0.13198 0.0544184 0.0235998 0.00436456
threshold=0.10375000000000002 0.0018750000000000713 0.081250000000000031 0.14791666666666672 0.053750000000000027 0.11312500000000004 0.23958333333333334 0.27687500000000009 114.1981680061628 114.233759308771 0.063750000000000043 0.035624999999999997 0.46416666666666678 0.136875 0.081250000000000003 0.095625000000000085 0.016874999999999977 0.027916666666666704 0.079583333333333409 0.33875000000000005 0.2695833333333334 0.2429166666666667 0.069375000000000006
decision_type=2 2 2 2 2 2 2 2 2 2 2 2 2 2 2 2 2 2 2 2 2 2 2
left_child=1 8 4 5 -3 -2 22 12 -1 -10 11 -6 16 14 15 -4 20 -17 -12 21 -8 -18 -5
right_child=3 2 13 6 10 -7 7 -9 9 -11 18 -13 -14 -15 -16 17 19 -19 -20 -21 -22 -23 -24
leaf_value=-1.6475062423408182 -1.8735383238805592 -1.7398530510452117 -1.8308479872696366 -1.9735588365541283 -1.7839522000888046 -1.9473328386719051 -2.0022663380926655 -2.1134508597336681 -1.6754010541306905 -1.7398530510452117 -1.8202286240693437 -1.8157675078278226 -2.0668492555839859 -1.8735383238805592 -1.8652655888019885 -1.8381193747557443 -2.0131955198418097 -1.8489590118126444 -1.8308479872696366 -2.0236091509143597 -2.0101032289857579 -2.0172503159148092 -1.9740315675901492
leaf_weight=96.539063207805157 114.7547342851758 119.19751022011042 24.785611912608147 72.697576940059662 26.12136173248291 72.212897248566151 3.2807403430342665 8.4415652453899366 9.7354544475674647 10.291311860084532 68.031933560967445 20.151327319443226 4.1202877983450881 79.465298190712929 26.198811210691929 6.7446759045124045 3.9015037193894377 41.408097706735134 70.715976715087891 8.7074608579277974 2.4118757843971252 44.725447751581669 148.69368865340948
leaf_count=176 637 381 117 546 103 548 19 84 15 41 329 105 41 511 172 33 32 221 383 73 24 370 1118
internal_value=-2.05706 -1.79042 -1.82261 -1.95665 -1.78816 -1.90634 -1.98833 -2.03066 -1.65709 -1.7033 -1.82805 -1.80069 -2.02025 -1.87354 -1.85699 -1.83459 -2.01415 -1.84539 -1.83085 -2.01794 -2.00227 -2.01692 -1.97388
internal_weight=0 599.386 482.821 483.948 304.218 186.968 296.98 75.5889 116.566 20.0268 185.021 46.2727 67.1473 178.602 99.1372 72.9384 63.027 48.1528 138.748 57.3344 5.69262 48.627 221.391
internal_count=6079 2587 2355 3492 1301 1185 2307 643 232 56 920 208 559 1054 543 371 518 254 712 475 43 402 1664
is_linear=0
shrinkage=1


Tree=1
num_leaves=19
num_cat=0
split_feature=0 1 0 1 1 0 1 0 0 1 0 2 2 1 2 0 0 1
split_gain=1676.58 488.793 211.566 168.538 140.569 116.811 63.3682 57.0131 42.5028 23.4242 10.8127 6.71585 9.90337 1.71816 0.425069 0.108824 0.0192833 0.00322246
threshold=0.10375000000000002 0.051875000000000011 0.14791666666666672 0.0018750000000000713 0.11312500000000004 0.047916666666666614 0.095625000000000085 0.23958333333333334 0.059583333333333328 0.27687500000000009 0.46416666666666678 114.1981680061628 114.233759308771 0.016874999999999977 113.39303978305578 0.33875000000000005 0.2429166666666667 0.069375000000000006
decision_type=2 2 2 2 2 2 2 2 2 2 2 2 2 2 2 2 2 2
left_child=1 3 4 11 -2 -5 8 17 -3 10 13 -1 -13 -9 -7 16 -15 -4
right_child=2 6 7 5 -6 14 -8 9 -10 -11 -12 12 -14 15 -16 -17 -18 -19
leaf_value=0.28624844756204004 0.14642165505390028 0.19928373445339884 0.074290174187659042 0.24880038874934307 0.094243719892318153 0.22404206160137097 0.14642165505390028 0.04927233952196982 0.16492654431179649 -0.056041013708575754 -0.011051669483891894 0.27230286202019321 0.24880038874934307 0.040252533492792036 0.19928373445339884 0.030948564389459917 0.036648101318325486 0.073896717190914937
leaf_weight=130.05238190293312 131.7846017703414 71.807809039950371 77.491216599941254 86.540464788675308 78.510119132697582 14.970421411097048 169.47699809074402 5.922197960317134 75.469438709318638 8.0788076519966108 4.0891728475689879 12.868357568979265 13.008854389190672 4.0353265106678 160.79680107533932 8.9346277341246587 46.116316959261894 158.44184230268002
leaf_count=176 637 238 546 190 548 49 885 43 354 84 41 15 41 32 639 73 370 1118
internal_value=0 0.204968 0.0878752 0.240453 0.126664 0.215981 0.158115 0.0618232 0.183431 0.0245187 0.0339377 0.28162 0.258357 0.0396157 0.199284 0.0360324 0.0369381 0.0740259
internal_weight=0 734.992 523.404 418.237 210.295 262.308 316.754 313.11 147.277 77.1764 69.0976 155.93 25.8772 65.0085 175.767 59.0863 50.1516 235.933
internal_count=6079 2587 3492 1110 1185 878 1477 2307 592 643 559 232 56 518 688 475 402 1664
is_linear=0
shrinkage=0.05


Tree=2
num_leaves=27
num_cat=0
split_feature=0 1 1 0 0 0 1 2 1 2 0 2 2 2 1 0 1 2 0 1 1 1 2 1 0 1
split_gain=1115.19 341.013 180.151 134.556 77.7613 36.0987 62.8283 23.2747 21.1364 11.8648 10.0534 14.8061 9.84505 5.49708 5.15909 3.32461 2.88269 1.27921 1.11024 0.728571 0.480701 4.25239 0.43822 0.201364 0.0152317 0.00226797
threshold=0.12124999999999998 0.095625000000000085 0.0031250000000000171 0.053750000000000027 0.23958333333333334 0.14791666666666672 0.086875000000000022 114.32132968549972 0.27687500000000009 101.22903442879164 0.46416666666666678 87.137574103578075 108.06451839065318 111.59492602821716 0.094375000000000001 0.081250000000000003 0.204375 97.079617038211424 0.25208333333333338 0.051875000000000011 0.065000000000000099 0.088125000000000023 95.121885443179565 0.230625 0.079583333333333409 0.069375000000000006
decision_type=2 2 2 2 2 2 2 2 2 2 2 2 2 2 2 2 2 2 2 2 2 2 2 2 2 2
left_child=1 2 7 20 5 6 -2 -1 10 16 11 -6 23 -5 17 24 -7 -13 -16 -11 -4 -22 -18 -3 -15 -21
right_child=4 12 3 13 8 9 -8 -9 -10 19 -12 14 -14 15 18 -17 22 -19 -20 25 21 -23 -24 -25 -26 -27
leaf_value=0.22751393049835145 0.11562539082954015 0.1479202481636091 0.19289516109903135 0.17040770463132021 0.050139285120833058 0.08283408300001982 0.08283408300001982 0.19289516109903135 -0.055711785254559033 0.06404093720770572 -0.012175588284110389 0.034675573970930601 0.11562539082954015 0.1573019980423872 0.023461966655593806 0.1479202481636091 0.07666216771627149 0.023461966655593806 0.01224835934025701 0.057373280517496274 0.1853293505808761 0.17040770463132021 0.070490252432523146 0.13177281949657463 0.1553725885240759 0.056687995087536504
leaf_weight=177.92468054592609 63.207316517829895 13.77729655057192 150.18133898079395 27.076306164264679 15.498734548687933 61.568527027964592 63.279843494296074 19.415178969502449 7.72906270623207 48.279831804335117 4.054236724972724 18.632424227893356 209.48817368596792 162.09109963476658 7.2262695878744152 135.31151309609413 10.331390559673311 6.2903622314333907 19.229733347892761 13.622015722095965 29.400046959519386 8.3875234425067884 9.3529471606016141 6.236893691122531 10.918205723166464 106.21030884981155
leaf_count=204 268 57 316 97 105 387 407 56 84 324 41 140 1043 563 54 580 64 52 167 93 76 34 69 31 40 727
internal_value=0 0.163239 0.180215 0.164865 0.0680123 0.0774735 0.0992307 0.220925 0.022805 0.0664375 0.0313606 0.0366723 0.115625 0.14792 0.0192119 0.14792 0.0821253 0.0346756 0.0122484 0.0588552 0.192895 0.177764 0.0704903 0.14792 0.15718 0.0567659
internal_weight=0 950.208 720.706 523.366 454.513 375.852 126.487 197.34 78.6608 249.365 70.9318 66.8775 229.502 335.397 51.3788 308.321 81.2529 24.9228 26.456 168.112 187.969 37.7876 19.6843 20.0142 173.009 119.832
internal_count=6079 3097 1966 1706 2982 2339 675 260 643 1664 559 518 1131 1280 413 1183 520 192 221 1144 426 110 133 88 603 820
is_linear=0
shrinkage=0.05


Tree=3
num_leaves=26
num_cat=0
split_feature=0 1 1 0 0 0 1 2 1 0 2 2 2 0 0 1 1 1 0 2 1 2 0 0 1
split_gain=792.569 232.849 124.807 80.6036 64.3382 31.5561 55.3086 20.6595 19.2823 9.45588 13.0736 9.2692 8.34152 10.844 8.21473 4.80299 4.10535 2.5287 1.16089 1.14069 0.57308 0.291326 0.240312 0.182754 0.00179941
threshold=0.11875000000000004 0.005624999999999992 0.11062499999999999 0.053750000000000027 0.23958333333333334 0.14791666666666672 0.086875000000000022 114.32132968549972 0.27687500000000009 0.46416666666666678 87.137574103578075 101.22903442879164 110.27638023058601 0.09791666666666661 0.063750000000000043 0.094375000000000001 0.066249999999999962 0.204375 0.25208333333333338 97.079617038211424 0.051875000000000011 95.121885443179565 0.044583333333333426 0.099583333333333426 0.069375000000000006
decision_type=2 2 2 2 2 2 2 2 2 2 2 2 2 2 2 2 2 2 2 2 2 2 2 2 2
left_child=1 7 3 -3 5 6 -2 23 9 10 -6 17 -5 16 -9 19 -14 -7 -17 -12 -13 -19 -4 -1 -22
right_child=4 2 22 12 8 11 -8 14 -10 -11 15 20 13 -15 -16 18 -18 21 -20 -21 24 -23 -24 -25 -26
leaf_value=0.1901870972967262 0.10112788995932742 0.15426727014477276 0.11974851425713001 0.1389991097434958 0.046046138727101033 0.074453285113894777 0.074453285113894777 0.17155848504789614 -0.055402271806743869 -0.013014110347162468 0.031882255783257984 0.057978752017650792 0.13025762946386857 0.11974851425713001 0.15426727014477276 0.021287201266697545 0.12476460658008569 0.068977072614273729 0.010692146750137098 0.021287201266697545 0.052201049464104136 0.063500860114652696 0.10112788995932742 0.18716421327868293 0.051603328936587728
leaf_weight=113.01196047663689 76.435507565736771 215.4241738319397 38.219095066189766 21.138919964432716 16.095084801316261 65.407351911067963 73.959662467241287 28.435276344418526 7.3921451568603507 4.0159810185432425 19.12500956654549 50.597791850566864 198.59523232281208 75.028373375535011 15.464693635702131 7.3552843928337124 81.802772954106331 10.926869422197344 19.40872947126627 6.4026202261447898 14.207123801112173 9.8480057269334775 163.3757883310318 89.672554790973663 110.71849763393402
leaf_count=112 297 467 150 61 105 387 446 49 84 41 140 324 624 324 56 54 305 64 167 52 93 69 784 97 727
internal_value=0 0.139641 0.126454 0.138369 0.0626148 0.0705719 0.0888234 0.18208 0.0215204 0.0293741 0.0343984 0.0600832 0.123731 0.121516 0.154267 0.0177184 0.129781 0.0735122 0.0106921 0.0318823 0.0534895 0.0635009 0.101128 0.18885 0.0516713
internal_weight=0 1040.17 793.584 591.989 491.896 412.101 150.395 246.584 79.7949 72.4027 68.3867 261.706 376.565 355.426 43.9 52.2916 280.398 86.1822 26.764 25.5276 175.523 20.7749 201.595 202.685 124.926
internal_count=6079 3029 2715 1781 3050 2407 743 314 643 559 518 1664 1314 1253 105 413 929 520 221 192 1144 133 934 209 820
is_linear=0
shrinkage=0.05


Tree=4
num_leaves=22
num_cat=0
split_feature=0 1 0 1 1 0 0 0 2 2 0 2 0 2 0 1 2 0 0 2 0
split_gain=598.566 180.276 85.1577 70.8933 59.6226 60.4589 29.3034 13.7948 16.6908 13.395 11.2773 10.7844 9.8663 7.34544 3.58417 4.71247 1.53488 1.89837 1.34469 0.809326 5.72288e-06
threshold=0.10375000000000002 0.066249999999999962 0.14791666666666672 0.11312500000000004 0.0037499999999999483 0.039583333333333422 0.23958333333333334 0.053750000000000027 118.3803986903589 114.32132968549972 0.46416666666666678 94.39703138731187 0.26291666666666669 101.22903442879164 0.079583333333333409 0.04000000000000007 87.137574103578075 0.32125000000000004 0.063750000000000043 95.460756215052541 0.5491666666666668
decision_type=2 2 2 2 2 2 2 2 2 2 2 2 2 2 2 2 2 2 2 2 2
left_child=1 4 3 -2 9 -6 13 8 -3 -1 11 16 -13 19 15 18 -8 -18 -7 -4 -12
right_child=2 7 6 -5 5 14 10 -9 -10 -11 20 12 -14 -15 -16 -17 17 -19 -20 -21 -22
leaf_value=0.16462041180017528 0.094022692497183771 0.11762225407735985 0.065504568801681817 0.065504568801681817 0.14411760807698526 0.13086993107717257 0.037501505967094596 0.094022692497183771 0.10276708993670632 0.14411760807698526 -0.055919350765713118 0.020206555590486903 -0.015520539591348654 0.048845605309556582 0.11762225407735985 0.1209397877134708 0.030681047310471957 0.020206555590486903 0.12580287578924085 0.059891738998724048 -0.056031328903527335
leaf_weight=219.07969227433205 171.54227158427238 42.323156908154488 24.796443790197372 95.830297976732254 113.59923556447029 87.654989778995514 19.515604041516781 223.67055116593838 72.235486447811127 29.341442912817001 2.2629454508423796 17.865811824798584 14.734361812472342 182.41205839067698 95.781331077218056 73.735714063048363 20.755584992468361 3.3920547217130652 62.988977655768394 65.952241912484169 2.3014029413461685
leaf_count=198 637 113 135 548 166 194 139 883 257 67 24 135 133 1144 323 210 157 31 176 385 24
internal_value=0 0.125147 0.0628989 0.0841972 0.139945 0.128758 0.0468119 0.0952999 0.111511 0.159477 0.0203657 0.0249347 0.00291161 0.0546373 0.117622 0.124257 0.0375015 0.0238606 0.130666 0.0655046 -0.0559758
internal_weight=0 1020.41 621.361 267.373 682.181 433.76 353.989 338.229 114.559 248.421 80.8278 76.2634 32.6002 273.161 320.161 224.38 43.6632 24.1476 150.644 90.7487 4.56435
internal_count=6079 2587 3492 1185 1334 1069 2307 1253 370 265 643 595 268 1664 903 580 327 188 370 520 48
is_linear=0
shrinkage=0.05


Tree=5
num_leaves=22
num_cat=0
split_feature=0 1 1 0 0 1 0 1 0 2 2 2 1 0 2 2 2 0 2 2 1
split_gain=469.177 153.411 79.2666 75.1976 41.3985 22.4658 46.4422 17.3689 8.22504 10.1396 7.59448 6.23348 4.63796 4.58074 3.30563 3.17494 2.89203 2.28169 0.213189 3.12061 2.67156e-07
threshold=0.11875000000000004 0.095625000000000085 0.0018750000000000713 0.053750000000000027 0.23958333333333334 0.086875000000000022 0.16708333333333333 0.27687500000000009 0.46416666666666678 94.39703138731187 114.605854054912 111.59492602821716 0.023749999999999969 0.21958333333333338 102.0034831513707 106.51837787899395 114.19075008006978 0.13375000000000001 114.1981680061628 114.233759308771 0.38562500000000011
decision_type=2 2 2 2 2 2 2 2 2 2 2 2 2 2 2 2 2 2 2 2 2
left_child=1 2 16 -4 5 6 -2 8 9 -6 13 -5 -11 14 -7 -3 -1 -16 -18 -20 -9
right_child=4 15 3 11 7 10 -8 20 -10 12 -12 -13 -14 -15 17 -17 18 -19 19 -21 -22
leaf_value=0.14534000678594333 0.080192794600221107 0.099185954580385705 0.12578712077449547 0.11248653767744057 0.038627040412141656 0.059388831471694284 0.059388831471694284 -0.055175795026169788 -0.01437866168402944 0.023428346624337265 0.038627040412141656 0.099185954580385705 0.0082296528365328799 0.045533675445096934 0.055128993775482776 0.080192794600221107 0.13700003671916799 0.050869156079271276 0.13387530356472641 0.12578712077449547 -0.055195824256983855
leaf_weight=188.24649703502655 114.3184592872858 15.506386488676069 251.07778675854206 34.731599807739258 40.591865964233875 61.343023389577866 82.737566545605659 4.5016263946890822 3.8038652241230002 5.4487265571951893 34.227670341730118 391.79346519708633 24.82567260414362 27.55625869333744 28.577828213572502 260.34364676475525 20.494024857878685 103.01794540882111 20.557705566287041 20.284585431218147 2.6419257894158363
leaf_count=159 446 50 431 86 279 330 511 53 41 34 208 1184 205 171 133 1043 20 608 15 41 31
internal_value=0 0.108358 0.118179 0.109307 0.0520273 0.0579539 0.0706306 0.0193002 0.0264259 0.030838 0.048147 0.099186 0.00822965 0.0524403 0.0562046 0.0801928 0.142268 0.0508692 0.132839 0.130751 -0.0551832
internal_weight=0 1203.04 927.186 677.603 533.592 451.779 197.056 81.8137 74.6701 70.8663 254.723 426.525 30.2744 220.495 192.939 275.85 249.583 131.596 61.3363 40.8423 7.14355
internal_count=6079 3029 1936 1701 3050 2407 957 643 559 518 1450 1270 239 1242 1071 1093 235 741 76 56 84
is_linear=0
shrinkage=0.05


Tree=6
num_leaves=22
num_cat=0
split_feature=0 1 0 1 1 0 0 2 2 0 0 2 2 0 2 0 0 0 2 0 0
split_gain=388.884 126.157 56.3234 52.0584 44.0871 46.4545 19.4299 21.574 10.8395 9.39575 9.30039 12.5014 3.89434 4.53615 2.19881 2.00395 1.89802 1.72178 0.312107 0.224021 0.031193
threshold=0.10375000000000002 0.066249999999999962 0.14791666666666672 0.11312500000000004 0.0037499999999999483 0.039583333333333422 0.25458333333333338 98.556299308544297 114.32132968549972 0.46416666666666678 0.053750000000000027 118.3803986903589 101.22903442879164 0.22291666666666668 87.137574103578075 0.33875000000000005 0.079583333333333409 0.17208333333333334 94.39703138731187 0.062916666666666635 0.053750000000000027
decision_type=2 2 2 2 2 2 2 2 2 2 2 2 2 2 2 2 2 2 2 2 2
left_child=1 4 3 -2 8 -6 12 9 -1 14 11 -3 13 -4 -8 18 19 -14 -16 20 -7
right_child=2 10 6 -5 5 16 7 -9 -10 -11 -12 -13 17 -15 15 -17 -18 -19 -20 -21 -22
leaf_value=0.13194859431518638 0.076085952977491794 0.093991829052817999 0.053932047072521395 0.053932047072521395 0.11504280360852984 0.10094778331065589 0.029550365637544752 -0.056582976925709676 0.11504280360852984 -0.015208417021477362 0.076085952977491794 0.082812565221194581 0.046180072160346593 0.046183501686732714 0.022653495396295548 0.0071709743080336959 0.093991829052817999 0.036668260373671907 0.014912234852164622 0.097291924391414486 0.099463388400704039
leaf_weight=246.16411805152893 191.26406916975975 47.787383705377579 69.427414566278458 104.20050744712353 128.92089395225048 80.094496160745621 19.817837230861187 9.1621750146150571 33.249048680067062 4.2981378585100165 249.02521061897278 80.824362635612488 77.831026047468185 42.785942658782005 18.169369958341125 2.917583391070365 108.02560222148895 122.39216020703316 10.936791792511938 109.87812726199627 63.410991445183754
leaf_count=198 637 113 356 548 166 154 134 91 67 48 883 257 443 264 132 26 323 729 84 276 150
internal_value=0 0.100021 0.0521512 0.0685037 0.111633 0.1026 0.0393604 0.014556 0.127485 0.0261661 0.0763502 0.0895392 0.0445447 0.0520013 0.0295504 0.0157566 0.0939918 0.0403657 0.0226535 0.098991 0.100292
internal_weight=0 1147.38 673.203 295.465 769.743 490.33 377.738 65.3019 279.413 56.1397 377.637 128.612 312.437 112.213 51.8416 32.0237 361.409 200.223 29.1062 253.384 143.505
internal_count=6079 2587 3492 1185 1334 1069 2307 515 265 424 1253 370 1792 620 376 242 903 1172 216 580 304
is_linear=0
shrinkage=0.05


Tree=7
num_leaves=26
num_cat=0
split_feature=0 1 0 1 0 1 0 0 1 0 2 2 2 0 2 2 0 1 0 0 2 2 2 2 0
split_gain=323.474 111.421 46.4333 45.8407 30.6328 23.2601 28.332 16.0497 12.8256 9.42118 8.09088 5.08648 3.6558 3.21524 2.77804 2.40282 2.12261 1.42976 2.80205 0.588952 0.935157 0.419038 0.219874 1.14245 6.11437e-06
threshold=0.10375000000000002 0.035624999999999997 0.14791666666666672 0.11312500000000004 0.053750000000000027 0.0018750000000000713 0.063750000000000043 0.23958333333333334 0.088125000000000023 0.46416666666666678 100.46652611786764 101.22903442879164 87.137574103578075 0.25208333333333338 117.63403597534001 114.19075008006978 0.33875000000000005 0.081250000000000031 0.079583333333333409 0.25458333333333338 94.39703138731187 95.460756215052541 114.1981680061628 114.233759308771 0.5491666666666668
decision_type=2 2 2 2 2 2 2 2 2 2 2 2 2 2 2 2 2 2 2 2 2 2 2 2 2
left_child=1 5 3 -2 8 15 -7 11 -3 10 12 21 -9 -12 -10 -1 19 18 -6 -14 -21 -4 -17 -24 -11
right_child=2 4 7 -5 17 6 -8 9 14 24 13 -13 16 -15 -16 22 -18 -19 -20 20 -22 -23 23 -25 -26
leaf_value=0.11991211072128072 0.069412705678821615 0.091188853412805262 0.049474414911587675 0.049474414911587675 0.079855905804759653 0.10720933636807634 0.091188853412805262 0.029456453296138465 0.085522379608782464 -0.055405386863748379 0.0049902483513383005 0.037171725123413747 0.022439958787811201 -0.0172468751689984 0.079855905804759653 0.11306835080999188 0.0049902483513383005 0.069412705678821615 0.072364869246377139 0.018825957568272877 0.012633114072145622 0.045307494739622867 0.1101388435890341 0.10720933636807634 -0.055525393840363695
leaf_weight=203.25348636507988 199.59747932851315 140.41528934240341 27.83610725402832 107.85729819536209 102.21315163373947 176.98148177564144 138.26320427656174 20.87659976631403 33.110462412238121 2.1009154915809622 4.0605829656124097 201.9101025313139 12.91481678932905 6.5361535996198654 61.69599874317646 22.282534077763557 3.0088893473148337 209.65034435689449 64.951447889208794 18.473449796438217 13.755683898925779 74.046726867556572 22.445811465382576 22.378372818231583 2.1451396197080612
leaf_count=156 637 235 135 548 265 265 360 139 73 24 29 1144 89 69 226 20 27 739 192 132 110 385 15 41 24
internal_value=0 0.0908522 0.0479732 0.0624841 0.0759344 0.106443 0.097215 0.0364648 0.0902991 0.0171026 0.0209723 0.0418104 0.0272274 -0.0172469 0.0798559 0.117204 0.0154235 0.0694127 0.075317 0.020276 0.015212 0.0494744 0.109 0.107209 -0.055466
internal_weight=0 1197.64 695.12 307.455 612.037 585.605 315.245 387.665 235.222 83.8722 79.6262 303.793 69.0294 10.5967 94.8065 270.36 48.1528 376.815 167.165 45.144 32.2291 101.883 67.1067 44.8242 4.24606
internal_count=6079 2587 3492 1185 1730 857 625 2307 534 643 595 1664 497 98 299 232 358 1196 457 331 242 520 76 56 48
is_linear=0
shrinkage=0.05


Tree=8
num_leaves=22
num_cat=0
split_feature=0 1 0 1 1 0 0 2 0 0 2 2 0 2 2 0 0 0 1 2 2
split_gain=273.571 104.445 42.2637 35.9906 35.0936 38.5522 13.6032 19.3556 8.06427 4.69642 11.0983 2.86316 3.69164 1.55708 1.52792 1.98171 1.36641 1.05235 1.88769 0.217957 0.119675
threshold=0.10125000000000002 0.066249999999999962 0.14791666666666672 0.11062499999999999 0.0012500000000000291 0.039583333333333422 0.25458333333333338 98.556299308544297 0.46416666666666678 0.053750000000000027 117.82880182965063 101.22903442879164 0.21208333333333337 114.19075008006978 87.137574103578075 0.33875000000000005 0.17208333333333334 0.053750000000000027 0.04000000000000007 94.39703138731187 114.1981680061628
decision_type=2 2 2 2 2 2 2 2 2 2 2 2 2 2 2 2 2 2 2 2 2
left_child=1 4 3 -2 13 -6 11 8 14 10 -3 12 -4 -1 -8 19 -13 18 -7 -16 -15
right_child=2 9 6 -5 5 17 7 -9 -10 -11 -12 16 -14 20 15 -17 -18 -19 -20 -21 -22
leaf_value=0.11100950069508136 0.064341229050934964 0.079096480539142394 0.045867889078397651 0.045867889078397651 0.097813781732455182 0.088455131135798781 0.025668542814587969 -0.056182145506053431 -0.016205707854580868 0.064341229050934964 0.069184301770891146 0.039417746704913506 0.039417746704913506 0.10466915119310363 0.019676622708231312 0.0047314174800035516 0.031352405433904766 0.079096480539142394 0.082119433162597344 0.012493598090661216 0.10006519147058486
leaf_weight=202.50006593763828 223.65358328819275 41.326759532094002 55.237211123108864 124.22236666083336 143.55166462063789 60.708389475941658 20.685874916613102 8.7154806107282621 4.0600010752677909 255.78273423016071 98.665636152029037 82.324903696775436 64.240826159715652 22.851162850856781 18.728319704532627 2.9439850598573676 128.58429236710072 316.72418536245823 32.336975514888763 11.161859825253485 36.920491278171539
leaf_count=151 681 85 261 587 170 96 134 91 48 842 285 443 359 20 132 26 729 747 66 84 42
internal_value=0 0.0835971 0.0450853 0.0578061 0.0938517 0.0867111 0.0339297 0.0132598 0.0237707 0.0643412 0.0740274 0.0380773 0.0442615 0.108916 0.0256685 0.0136847 0.034574 0.0790965 0.0851424 0.0196766 0.101825
internal_weight=0 1211.37 744.559 347.876 815.593 553.321 396.683 66.2955 57.58 395.775 139.992 330.387 119.478 262.272 53.52 32.8342 210.909 409.77 93.0454 29.8902 59.7717
internal_count=6079 2504 3575 1268 1292 1079 2307 515 424 1212 370 1792 620 213 376 242 1172 909 162 216 62
is_linear=0
shrinkage=0.05


Tree=9
num_leaves=21
num_cat=0
split_feature=0 1 0 1 0 1 0 0 2 2 1 0 0 2 2 2 0 0 2 0
split_gain=236.329 95.4394 35.5451 34.1919 35.6941 32.3418 12.1673 7.57855 6.912 3.94963 3.60594 11.1725 3.41353 5.65774 2.18794 3.26804 1.1422 1.06127 0.397439 4.92622e-06
threshold=0.10125000000000002 0.066249999999999962 0.14791666666666672 0.0018750000000000713 0.039583333333333422 0.11062499999999999 0.46416666666666678 0.23958333333333334 87.137574103578075 101.22903442879164 0.136875 0.081250000000000003 0.25458333333333338 98.556299308544297 114.19075008006978 114.233759308771 0.33875000000000005 0.053750000000000027 95.460756215052541 0.5491666666666668
decision_type=2 2 2 2 2 2 2 2 2 2 2 2 2 2 2 2 2 2 2 2
left_child=1 3 5 14 -5 -2 7 9 -9 18 11 -3 -10 16 -1 -16 -14 -6 -4 -8
right_child=2 10 6 4 17 -7 19 8 12 -11 -12 -13 13 -15 15 -17 -18 -19 -20 -21
leaf_value=0.10356241971351204 0.059416876301598268 0.073098543403939328 0.042415825760829723 0.090306724764509502 0.080107024169040683 0.042415825760829723 -0.055032214632112088 0.027405761390109636 0.017550334044902933 0.031936420899631029 0.059416876301598268 0.062635356670394909 0.0082621472518363531 -0.011306147997613229 0.098475547024754459 0.090306724764509502 -0.0015220003728884379 0.073098543403939328 0.038495964088019169 -0.055143102065544396
leaf_weight=210.24957837164402 230.97923804819584 211.45052371919155 29.524967208504677 145.77033773064613 94.729123473167419 127.69421322643757 1.982354663312434 21.727289572358131 18.221278496086597 211.7794825732708 141.96686936914921 55.310980454087257 30.261587254703045 8.3390856161713582 46.775998994708061 23.812823832035065 2.9542945623397818 316.51845137774944 78.390997782349586 2.0244424343109131
leaf_count=154 681 524 135 168 158 587 24 139 123 1144 494 194 216 91 35 41 26 736 385 24
internal_value=0 0.0770762 0.0417576 0.0867802 0.0796082 0.0532216 0.0316101 0.0324759 0.0188658 0.0359457 0.0594169 0.0658538 0.00769491 -0.00102604 0.101005 0.0933887 0.00826215 0.0730985 0.0424158 -0.0550882
internal_weight=0 1246.58 763.879 837.856 557.018 358.673 405.206 401.199 81.5035 319.695 408.728 266.762 59.7762 41.555 280.838 70.5888 33.2159 411.248 107.916 4.0068
internal_count=6079 2504 3575 1292 1062 1268 2307 2259 595 1664 1212 718 456 333 230 76 242 894 520 48
is_linear=0
shrinkage=0.05


Tree=10
num_leaves=22
num_cat=0
split_feature=0 1 0 1 2 0 0 0 1 1 0 2 2 2 0 0 2 0 2 2 0
split_gain=204.712 88.7507 26.9653 33.5321 22.496 22.3461 22.0001 11.0091 10.4253 6.26218 6.24649 6.33121 3.47187 3.20339 2.08949 1.53911 0.59892 0.416177 0.680552 0.245556 4.16245e-06
threshold=0.10375000000000002 0.035624999999999997 0.14791666666666672 0.11312500000000004 114.233759308771 0.053750000000000027 0.047916666666666614 0.46416666666666678 0.088125000000000023 0.0025000000000000859 0.23958333333333334 100.46652611786764 101.22903442879164 87.137574103578075 0.25208333333333338 0.33875000000000005 117.63403597534001 0.25458333333333338 94.39703138731187 95.460756215052541 0.5491666666666668
decision_type=2 2 2 2 2 2 2 2 2 2 2 2 2 2 2 2 2 2 2 2 2
left_child=1 4 3 -2 9 8 -6 10 -3 -1 12 13 19 -12 -13 17 -10 -15 -19 -4 -9
right_child=2 5 7 -5 6 -7 -8 20 16 -11 11 14 -14 15 -16 -17 -18 18 -20 -21 -22
leaf_value=0.097672675634367892 0.054511126219904928 0.071300995242627285 0.03908815116318394 0.03908815116318394 0.085130316682224316 0.054511126219904928 0.071300995242627285 -0.054763030329369612 0.06688139609889332 0.085130316682224316 0.025745048140836026 0.0055789871633604568 0.029699158825918538 0.019243422625691554 -0.012231462446133554 0.0055789871633604568 0.062461796955159354 0.016205082376247439 0.011431780410100135 0.035678129695759467 -0.054867287930641676
leaf_weight=264.33560648560524 220.30442915856838 153.15069732069969 30.318048417568207 117.31669628620148 116.0698828548193 416.07148197293282 227.45251928269863 1.8947085142135613 36.97331365942955 25.615652069449425 22.153734497725964 4.2279599681496602 216.2269184589386 13.670657098293303 6.1594676002860069 3.0228587388992301 68.546828255057335 19.110101945698261 13.918968312442301 80.301660761237144 1.9351445883512495
leaf_count=193 637 235 135 548 129 1196 480 24 73 55 139 29 1144 89 69 27 226 132 110 385 24
internal_value=0 0.07089 0.0381323 0.0486134 0.0843306 0.0582714 0.0756741 0.0295629 0.0704125 0.0945865 0.0303528 0.0180378 0.0334523 0.0233894 -0.0122315 0.0127418 0.0624618 0.0172846 0.0131667 0.0390882 -0.0548157
internal_weight=0 1308.22 750.561 337.621 633.474 674.742 343.522 412.94 258.671 289.951 409.11 82.2637 326.847 71.8763 10.3874 49.7226 105.52 46.6997 33.0291 110.62 3.82985
internal_count=6079 2587 3492 1185 857 1730 609 2307 534 248 2259 595 1664 497 98 358 299 331 242 520 48
is_linear=0
shrinkage=0.05


Tree=11
num_leaves=22
num_cat=0
split_feature=0 1 1 0 0 1 0 2 0 2 0 2 2 2 1 0 0 1 2 0 0
split_gain=181.089 85.1744 32.5711 32.538 25.2671 26.7273 9.14776 10.5344 3.25677 5.25262 3.21438 3.13449 2.18587 3.09575 0.991867 4.94101 0.461359 0.366997 0.282516 0.00418042 1.266e-05
threshold=0.10125000000000002 0.066249999999999962 0.0018750000000000713 0.039583333333333422 0.14791666666666672 0.11062499999999999 0.33875000000000005 80.81149117033307 0.23958333333333334 94.39703138731187 0.46416666666666678 101.22903442879164 114.19075008006978 114.233759308771 0.11062499999999999 0.053750000000000027 0.25458333333333338 0.088125000000000023 95.460756215052541 0.053750000000000027 0.35958333333333337
decision_type=2 2 2 2 2 2 2 2 2 2 2 2 2 2 2 2 2 2 2 2 2
left_child=1 2 12 -4 5 -2 8 10 11 -10 -8 18 -1 -14 15 17 -11 -3 -6 -5 -9
right_child=4 14 3 19 6 -7 7 20 9 16 -12 -13 13 -15 -16 -17 -18 -19 -20 -21 -22
leaf_value=0.091796205929655317 0.051214041366414997 0.063328888545204423 0.07895972162995489 0.069173068009153113 0.036565660793705351 0.036565660793705351 0.0099494575821221787 -0.058068885623178246 0.025288586352882076 0.017619021967502129 -0.024101114379557372 0.027667513541160413 0.086773400093085082 0.07895972162995489 0.051214041366414997 0.05414486194618804 0.0099494575821221787 0.058736875245696235 0.033140315859296887 0.063328888545204423 -0.058206601034059738
leaf_weight=213.91424857079983 243.70045611262321 44.282420322299004 151.74744686484337 98.74829788506031 31.052493467926979 133.98341992497444 5.8132969513535517 2.7756061926484099 37.909481137990952 13.375672273337839 3.3865946754813194 220.38784392178059 47.793865650892258 24.712590649724007 229.87585955858231 123.15457586944103 19.379925519227982 34.632274359464645 82.080585852265358 333.10043725371361 4.1850764155387878
leaf_count=154 681 71 168 158 135 587 33 24 247 88 44 1144 35 41 720 334 171 87 385 736 36
internal_value=0 0.0663387 0.0754437 0.0686663 0.0360894 0.0454753 0.027656 -0.00923202 0.0291309 0.0193803 0.00994946 0.0311969 0.0892532 0.0817506 0.051214 0.0570757 0.00994946 0.0633289 0.0365657 0.0633289 -0.0581517
internal_weight=0 1301.96 870.017 583.596 798.03 377.684 420.347 16.1606 404.186 70.6651 9.19989 333.521 286.421 72.5065 431.945 202.069 32.7556 78.9147 113.133 431.849 6.96068
internal_count=6079 2504 1292 1062 3575 1268 2307 137 2170 506 77 1664 230 76 1212 492 259 158 520 894 60
is_linear=0
shrinkage=0.05


Tree=12
num_leaves=20
num_cat=0
split_feature=0 1 1 0 0 1 0 2 0 0 2 2 2 2 0 2 0 1 0
split_gain=160.786 80.0282 32.4672 31.2045 21.5754 24.5145 7.61393 10.0979 2.97437 2.8693 4.78244 2.81667 2.24042 2.40566 0.261234 0.239734 0.226694 6.06248 1.07234e-05
threshold=0.10125000000000002 0.066249999999999962 0.0018750000000000713 0.039583333333333422 0.14791666666666672 0.11062499999999999 0.33875000000000005 80.81149117033307 0.46416666666666678 0.23958333333333334 94.39703138731187 101.22903442879164 114.1981680061628 114.233759308771 0.25458333333333338 95.460756215052541 0.053750000000000027 0.088125000000000023 0.35958333333333337
decision_type=2 2 2 2 2 2 2 2 2 2 2 2 2 2 2 2 2 2 2
left_child=1 2 12 -4 5 -2 9 8 -8 11 -11 15 -1 -14 -12 -6 17 -3 -9
right_child=4 16 3 -5 6 -7 7 18 -10 10 14 -13 13 -15 -16 -17 -18 -19 -20
leaf_value=0.086542858465423755 0.047783932366774022 0.059256832414362692 0.074295869949954671 0.059256832414362692 0.034072419856600339 0.034072419856600339 0.0095672238963181028 -0.057616939149238537 -0.024063777104282369 0.023640323317081671 0.016603773606699884 0.025815613218821965 0.080684064710635162 0.074295869949954671 0.0095672238963181028 0.030843686780078018 0.047783932366774022 0.050865329175148168 -0.057746395819197251
leaf_weight=237.93014466762543 249.17454695701599 45.06921099126339 153.90768826007843 440.24076317250729 31.741761639714241 136.75435738265514 5.8539462238550168 2.6604229658842078 3.319258451461792 38.591826476156712 13.5435798689723 224.28333207964897 24.195665761828423 25.039558589458466 19.525802001357079 83.738207802176476 285.57896517217159 110.788255661726 4.0118890963494778
leaf_count=174 681 71 168 894 135 587 33 24 44 247 88 1144 15 41 171 385 842 299 36
internal_value=0 0.06191 0.0707297 0.0640579 0.0336578 0.0422272 0.0259176 -0.00809305 0.00956722 0.0272275 0.0181355 0.0291451 0.0845338 0.0748253 0.00956722 0.0340724 0.0477839 0.0539467 -0.0576948
internal_weight=0 1322.75 881.314 594.148 813.199 385.929 427.27 15.8455 9.1732 411.425 71.6612 339.763 287.165 49.2352 33.0694 115.48 441.436 155.857 6.67231
internal_count=6079 2504 1292 1062 3575 1268 2307 137 77 2170 506 1664 230 56 259 520 1212 370 60
is_linear=0
shrinkage=0.05


Tree=13
num_leaves=24
num_cat=0
split_feature=1 0 1 2 1 0 0 2 0 0 2 2 0 1 0 0 0 2 2 0 0 0 0
split_gain=148.215 118.15 32.2611 13.2321 12.6028 23.4637 10.2628 7.37609 5.04678 4.65639 6.8072 2.44577 2.83563 2.07449 1.31572 1.21693 0.903711 0.734542 0.308755 0.0882397 0.774656 0.705692 0.854417
threshold=0.0031250000000000171 0.086250000000000007 0.136875 114.32132968549972 0.11312500000000004 0.16375000000000003 0.053750000000000027 111.08590539188437 0.21958333333333338 0.10458333333333332 114.92949100297486 110.27638023058601 0.09791666666666661 0.035624999999999997 0.11291666666666668 0.17375000000000004 0.063750000000000043 89.446295755614742 116.74351245552707 0.099583333333333426 0.10041666666666667 0.11374999999999998 0.14125000000000007
decision_type=2 2 2 2 2 2 2 2 2 2 2 2 2 2 2 2 2 2 2 2 2 2 2
left_child=3 2 6 19 5 11 -2 8 -6 -9 15 -3 -13 16 -12 -11 -8 -10 -18 -1 -21 -22 -23
right_child=1 4 -4 -5 7 -7 13 9 17 10 14 12 -14 -15 -16 -17 18 -19 -20 20 21 22 -24
leaf_value=0.083750896750185488 0.060788410688654232 0.043053634775860272 0.043053634775860272 0.060788410688654232 0.029461920762724539 0.029461920762724539 0.056740674574273245 0.021390130575560995 0.025426025669142767 0.014373832741796884 0.0043561663292069775 0.040650993135891704 0.036257777769292406 0.051570757631097044 -0.0097351852062815825 0.0043561663292069775 0.055448195338479202 0.021390130575560995 0.054155716102685152 0.082875894187862328 0.078769626309404039 0.075314813932385816 0.071860001555367606
leaf_weight=153.85776010155678 364.50357055664062 112.39765238761902 112.88204474747181 32.127246081829071 196.10290038585663 179.34648232907057 60.547003537416458 43.398797109723091 25.431419130414724 29.762285158038139 10.135272085666655 91.53899659216404 179.77030746638775 227.8197948038578 43.847819477319717 10.744471348822115 51.165338099002838 48.354215569794178 57.66401295363903 105.19081264734268 15.298498719930651 7.8642671257257444 7.0887991562485695
leaf_count=112 561 342 354 56 831 968 101 139 163 132 43 214 533 547 227 66 93 324 134 74 15 11 39
internal_value=0 0.0423929 0.0557223 0.0791839 0.030385 0.035233 0.0600879 0.0236908 0.0284975 0.0142828 0.00735753 0.0430536 0.0382484 0.0526929 -0.0056615 0.0143738 0.0567407 0.0213901 0.0541557 0.0829316 0.0820009 0.0746634 0.07186
internal_weight=0 1845.41 874.582 321.427 970.831 563.053 761.7 407.777 269.889 137.889 94.4898 383.707 271.309 397.196 53.9831 40.5068 169.376 73.7856 108.829 289.3 135.442 30.2516 14.9531
internal_count=6079 5772 1790 307 3982 2057 1436 1925 1318 607 468 1089 747 875 270 198 328 487 227 251 139 65 50
is_linear=0
shrinkage=0.05


Tree=14
num_leaves=26
num_cat=0
split_feature=1 0 1 2 0 1 1 0 0 2 0 2 1 2 0 0 2 1 2 2 0 0 0 0 1
split_gain=138.699 105.58 30.6955 12.7994 11.6322 14.2806 10.0051 15.3642 6.65325 5.99211 5.26695 4.4726 4.18269 2.91426 2.50018 1.56475 1.34109 0.606917 1.50587 0.132813 0.121117 1.07813 0.655725 0.375528 5.3446e-06
threshold=0.0031250000000000171 0.081250000000000003 0.136875 114.32132968549972 0.23958333333333334 0.27687500000000009 0.11312500000000004 0.16125000000000003 0.053750000000000027 112.47780603455011 0.46416666666666678 94.39703138731187 0.016874999999999977 110.27638023058601 0.09791666666666661 0.12708333333333335 95.460756215052541 0.04000000000000007 116.28766822575979 114.86369793968581 0.099583333333333426 0.10041666666666667 0.11374999999999998 0.14125000000000007 0.38562500000000011
decision_type=2 2 2 2 2 2 2 2 2 2 2 2 2 2 2 2 2 2 2 2 2 2 2 2 2
left_child=3 2 8 20 6 10 7 13 -2 15 11 -6 -13 -3 -15 -8 -17 18 -10 -19 -1 -22 -23 -24 -7
right_child=1 4 -4 -5 5 24 9 -9 17 -11 -12 12 -14 14 -16 16 -18 19 -20 -21 21 22 23 -25 -26
leaf_value=0.079988024431665999 0.057509290859014739 0.041254772294843679 0.041254772294843679 0.057509290859014739 0.021421067061702825 -0.055412307484377636 0.029846812367793477 0.029846812367793477 0.054060019417423291 0.021421067061702825 -0.018758258467250995 0.012078129383844574 0.0010383863453117745 0.038871391299453155 0.03543490846371114 0.02774037604127081 0.025633939714748151 0.05116388096535826 0.05116388096535826 0.049382031576929213 0.078961625259144477 0.074168147122583114 0.071217478275499138 0.068266809428415162 -0.055501296928453382
leaf_weight=153.05947943031788 368.4871319681406 110.63783256709576 97.532314419746399 32.356051549315453 46.403812259435654 4.5280808955430976 82.914972692728043 146.85944646596909 26.796986907720566 131.66600739955902 3.1467467695474616 4.637124463915824 27.463901527225971 139.31360003352165 182.35098738968372 30.049672499299049 143.36464670300484 27.345737889409065 134.27436108887196 161.51351468265057 104.55707038938999 15.369272515177729 8.1084397882223112 7.4005452394485465 2.6893440820276737
leaf_count=112 561 324 305 56 276 53 274 715 39 554 41 22 213 323 533 118 683 64 270 373 74 15 11 39 31
internal_value=0 0.0397192 0.053228 0.0752993 0.0292815 0.0119699 0.0308722 0.0350346 0.0575093 0.024659 0.0179289 0.020835 0.00273519 0.041023 0.036488 0.0298468 0.0256339 0.0506107 0.0529457 0.049382 0.0790243 0.0779352 0.0693747 0.0682668 -0.0554455
internal_weight=0 1871.98 815.95 320.851 1056.03 88.869 967.157 579.162 718.418 387.995 81.6516 78.5048 32.101 432.302 321.665 256.329 173.414 349.931 161.071 188.859 288.495 135.435 30.8783 15.509 7.21742
internal_count=6079 5772 1612 307 4160 636 3524 1895 1307 1629 552 511 235 1180 856 1075 801 746 309 437 251 139 65 50 84
is_linear=0
shrinkage=0.05


Tree=15
num_leaves=23
num_cat=0
split_feature=1 0 1 2 0 1 0 2 0 0 2 2 2 0 1 0 0 0 2 0 0 0
split_gain=130.586 95.1921 30.5696 12.4483 11.3195 9.18899 20.1625 5.87766 4.05872 4.02201 6.15945 3.36703 1.94823 2.48684 1.30173 1.20939 1.10284 0.82374 0.629122 0.157368 1.40231 0.797003
threshold=0.0031250000000000171 0.086250000000000007 0.088125000000000023 114.32132968549972 0.053750000000000027 0.11312500000000004 0.16375000000000003 111.08590539188437 0.21958333333333338 0.10458333333333332 114.92949100297486 112.47780603455011 110.27638023058601 0.09791666666666661 0.035624999999999997 0.11291666666666668 0.17375000000000004 0.063750000000000043 89.446295755614742 0.099583333333333426 0.10041666666666667 0.12708333333333335
decision_type=2 2 2 2 2 2 2 2 2 2 2 2 2 2 2 2 2 2 2 2 2 2
left_child=3 2 4 19 -2 6 12 8 -7 -9 16 -4 -3 -14 17 -12 -11 -6 -10 -1 -21 -22
right_child=1 5 11 -5 14 7 -8 9 18 10 15 -13 13 -15 -16 -17 -18 -19 -20 20 21 -23
leaf_value=0.076630727175557814 0.054527675546017201 0.037847420983841043 0.046187548264929122 0.054527675546017201 0.050357611905473158 0.025833693214771216 0.025833693214771216 0.018899143098853936 0.022366418156812576 0.012520886039265655 0.0031047911453348947 0.037847420983841043 0.035710446943340537 0.031840557099306131 0.046187548264929122 -0.010230301762629863 0.0031047911453348947 0.048272580085201133 0.018899143098853936 0.075457616815213194 0.070242265562965783 0.065026914310718373
leaf_weight=151.80757853388786 300.79842758178711 116.7047563791275 27.901213556528091 32.519560232758522 62.010746344923973 202.34360215067863 185.55596832185984 44.217777505517006 25.964254837483168 30.420901343226433 10.274311259388922 238.46416962146759 93.833358898758888 184.80965884029865 156.38733023405075 44.126844897866249 10.915635913610457 111.75894671678543 49.494085464626551 103.62829186022282 17.77394595742226 13.646427944302557
leaf_count=112 392 342 60 56 101 831 968 139 163 132 43 654 214 533 356 227 66 227 324 74 19 46
internal_value=0 0.0372477 0.049067 0.0718076 0.0545277 0.0266279 0.0306952 0.0209722 0.0251818 0.0126165 0.00614263 0.0378474 0.0378474 0.0335735 0.0461875 -0.0063113 0.0125209 0.0503576 0.0188991 0.0755262 0.0742845 0.0650269
internal_weight=0 1895.98 897.321 319.376 630.955 998.661 580.904 417.757 277.802 139.955 95.7377 266.365 395.348 278.643 330.157 54.4012 41.3365 173.77 75.4583 286.856 135.049 31.4204
internal_count=6079 5772 1790 307 1076 3982 2057 1925 1318 607 468 714 1089 747 684 270 198 328 487 251 139 65
is_linear=0
shrinkage=0.05


Tree=16
num_leaves=28
num_cat=0
split_feature=1 0 1 2 0 1 0 0 2 2 0 2 0 0 0 2 0 0 2 0 2 1 2 1 1 2 0
split_gain=122.859 86.6144 27.7122 12.1411 10.0828 7.63767 7.50929 6.41765 9.44277 4.28701 6.88969 4.20312 2.60294 2.53874 2.05117 1.54846 2.52237 1.27721 1.06664 0.769534 0.535844 0.401221 0.328907 0.104899 0.0946309 0.0260333 1.32229e-05
threshold=0.0031250000000000171 0.081250000000000003 0.136875 114.32132968549972 0.12124999999999998 0.10625 0.053750000000000027 0.33875000000000005 80.81149117033307 114.605854054912 0.14791666666666672 101.22903442879164 0.46416666666666678 0.17208333333333334 0.10041666666666667 111.59492602821716 0.09791666666666661 0.23541666666666669 108.06451839065318 0.12708333333333335 114.86369793968581 0.036874999999999998 116.28766822575979 1.0000000180025095e-35 0.016874999999999977 114.92949100297486 0.35958333333333337
decision_type=2 2 2 2 2 2 2 2 2 2 2 2 2 2 2 2 2 2 2 2 2 2 2 2 2 2 2
left_child=3 2 6 14 5 15 -2 9 12 10 -6 17 -9 -13 23 -3 -17 -12 -7 -16 -8 22 -22 -1 -19 -11 -10
right_child=1 4 -4 -5 7 18 20 8 26 25 11 13 -14 -15 19 16 -18 24 -20 -21 21 -23 -24 -25 -26 -27 -28
leaf_value=0.075091446149435956 0.051845821198218546 0.036447354975313151 0.036447354975313151 0.051845821198218546 0.026621700871921661 0.031534527923617404 0.04821856198453698 0.0065648439851614983 -0.05770554779453077 0.010098312949240079 0.022939641576807564 0.019009884482326767 -0.025613526512833929 0.015080127387845966 0.068000425353132582 0.034456162715273207 0.031534527923617404 0.020974763029567162 0.026621700871921661 0.062107731058899468 0.046085002803952745 0.043951443623368502 0.045018223213660627 0.073026853999757127 0.019009884482326767 0.0065648439851614983 -0.057849094247221594
leaf_weight=105.99866318702698 373.89209206402302 42.960842072963715 100.51444827020168 32.626055851578712 168.67549659311771 21.370902746915817 36.320035323500633 6.1316657438874262 2.6669535189867011 5.2144042104482642 113.73487663269043 87.506364598870277 3.3366316631436348 141.02539806813002 17.817052170634273 140.30520647764206 105.72654786705971 8.1445048749446851 132.58373615145683 14.066316932439802 16.937674343585968 175.6485500484705 129.92987217009068 146.63054876029491 66.013987697660923 34.115564987063408 4.026232048869133
leaf_count=75 561 91 305 56 532 62 77 33 24 23 471 398 44 739 19 313 300 37 459 46 23 393 253 111 426 172 36
internal_value=0 0.0350475 0.0471678 0.0686442 0.0257269 0.0315272 0.0514555 0.0217162 -0.0093916 0.0225213 0.0235954 0.0192576 0.00656484 0.0150801 0.0723696 0.0364474 0.032465 0.0229396 0.0266217 0.0621077 0.0445913 0.0439514 0.046085 0.0738931 0.0190099 0.00656484 -0.0577919
internal_weight=0 1916.78 833.243 317.139 1083.54 442.947 732.728 640.592 16.1615 624.431 585.101 416.425 9.4683 228.532 284.513 288.993 246.032 187.893 153.955 31.8834 358.836 322.516 146.868 252.629 74.1585 39.33 6.69319
internal_count=6079 5772 1612 307 4160 1225 1307 2935 137 2798 2603 2071 77 1137 251 704 613 934 521 65 746 669 276 186 463 195 60
is_linear=0
shrinkage=0.05


Tree=17
num_leaves=25
num_cat=0
split_feature=1 0 1 2 0 0 1 0 2 0 2 0 0 0 1 2 0 2 2 0 1 1 1 2
split_gain=115.632 77.3715 27.0122 11.8566 9.50217 8.72198 7.14998 5.57696 3.77018 6.6455 3.67391 2.57658 2.39946 1.6659 1.5734 1.45394 2.32664 0.868709 0.824971 0.623641 0.281937 0.144138 0.104818 0.0275543
threshold=0.0031250000000000171 0.081250000000000003 0.088125000000000023 114.32132968549972 0.053750000000000027 0.12124999999999998 0.10625 0.37333333333333346 114.605854054912 0.14791666666666672 74.127408029688681 0.46416666666666678 0.10041666666666667 0.22291666666666668 0.016874999999999977 111.59492602821716 0.09791666666666661 113.30863906347219 108.06451839065318 0.12708333333333335 0.069375000000000006 0.005624999999999992 1.0000000180025095e-35 114.92949100297486
decision_type=2 2 2 2 2 2 2 2 2 2 2 2 2 2 2 2 2 2 2 2 2 2 2 2
left_child=3 2 4 12 -2 6 15 8 9 -7 11 -9 22 20 -15 -3 -17 -4 -8 -14 -11 -6 -1 -10
right_child=1 5 17 -5 21 7 18 10 23 13 -12 -13 19 14 -16 16 -18 -19 -20 -21 -22 -23 -24 -25
leaf_value=0.072377911181127394 0.049376043275843176 0.034351895116203318 0.041863969196023247 0.049376043275843176 0.045620006235933208 0.025092641602782295 0.02972226835949281 0.0020464324572053425 0.0095397969621619019 0.021511772271839359 -0.057363258479323692 -0.027658413011059174 0.065296500636638652 0.017093835056973507 0.014139769331019443 0.032427931807074442 0.02972226835949281 0.034351895116203318 0.025092641602782295 0.059421756465272951 0.018923112716921781 0.041863969196023247 0.070300012568536727 0.0056474859644796722
leaf_weight=104.51147922873497 303.12310104072094 43.47065943479538 26.577926382422447 32.682913586497307 16.617134138941765 170.59710186719894 21.681477099657059 3.4537419378757459 5.242945432662963 95.638503357768059 3.6049014553427696 2.6615074910223484 17.820753678679466 11.351135209202765 120.65728753060102 141.5695525854826 106.82513050734997 216.38394677639008 134.09382756054401 14.457813099026678 199.59192192554474 277.49684132635593 144.7495649009943 34.248471982777119
leaf_count=75 392 91 57 56 27 532 62 20 23 429 35 36 19 48 725 313 300 571 459 46 915 565 111 172
internal_value=0 0.0330253 0.044438 0.0657268 0.049376 0.0242658 0.0296316 0.0205536 0.0211269 0.0221153 -0.017034 0.00204643 0.0694675 0.0179309 0.0141398 0.0343519 0.030504 0.0343519 0.0250926 0.0594218 0.0200479 0.041864 0.0711712 0.00616424
internal_weight=0 1934.89 840.199 314.223 597.237 1094.69 447.641 647.048 637.327 597.836 9.72015 6.11525 281.54 427.239 132.008 291.865 248.395 242.962 155.775 32.2786 295.23 294.114 249.261 39.4914
internal_count=6079 5772 1612 307 984 4160 1225 2935 2844 2649 91 56 251 2117 773 704 613 628 521 65 1344 592 186 195
is_linear=0
shrinkage=0.05


Tree=18
num_leaves=24
num_cat=0
split_feature=1 0 1 2 0 0 1 1 0 2 2 1 0 0 2 0 0 2 2 0 0 1 1
split_gain=108.831 70.2003 25.9113 11.5992 9.85759 7.64159 12.829 6.32815 11.7746 4.41241 3.61667 6.53756 2.80695 2.72786 2.2094 1.75238 1.06837 1.07251 0.53489 0.444606 0.16228 0.105335 6.37186e-06
threshold=0.0031250000000000171 0.081250000000000003 0.088125000000000023 114.32132968549972 0.053750000000000027 0.23958333333333334 0.27687500000000009 0.11312500000000004 0.16375000000000003 112.47780603455011 94.39703138731187 0.016874999999999977 0.25458333333333338 0.10041666666666667 110.27638023058601 0.09791666666666661 0.12708333333333335 95.460756215052541 113.30863906347219 0.12708333333333335 0.37333333333333346 1.0000000180025095e-35 0.38562500000000011
decision_type=2 2 2 2 2 2 2 2 2 2 2 2 2 2 2 2 2 2 2 2 2 2 2
left_child=3 2 4 13 -2 7 10 8 14 16 20 -12 -13 21 -3 -16 -9 -18 -4 -15 -7 -1 -8
right_child=1 5 18 -5 -6 6 22 9 -10 -11 11 12 -14 19 15 -17 17 -19 -20 -21 -22 -23 -24
leaf_value=0.069908976590730851 0.047110198012234476 0.032454490867583598 0.039782344439909037 0.047110198012234476 0.039782344439909037 0.016609775707100448 -0.055359571757124242 0.023334127766227078 0.023334127766227078 0.016609775707100448 0.0082155149296254098 -0.0045819052257059989 -0.020451709112471669 0.062823285341533835 0.030424059252600277 0.027894309316905338 0.021653039751445419 0.019971951736663763 0.032454490867583598 0.056957396387568263 0.0082155149296254098 0.067809625482089977 -0.055457405216313621
leaf_weight=102.83472606539726 303.62941202521324 121.05852261185646 26.917431578040123 32.696541860699654 296.44176298379898 43.031840078532696 4.4632964953780165 87.188177570700645 150.85656096041203 136.03056642413139 4.88367836177349 11.759830087423326 16.784644894301891 17.789106026291847 144.90264400839806 190.7458288371563 31.610597342252731 150.95104940235615 218.63784916698933 14.821814119815825 8.3645052984356862 142.61634257435799 2.6539030708372593
leaf_count=75 392 342 57 56 592 241 53 274 697 554 22 74 139 19 323 533 118 683 571 46 76 111 31
internal_value=0 0.0311808 0.0420243 0.0630396 0.0471102 0.0228847 0.00908256 0.024137 0.0273661 0.0193022 0.0144926 -0.000178746 -0.0173793 0.0668046 0.0324545 0.0283936 0.0233341 0.019972 0.0324545 0.0569574 0.0166098 0.0686892 -0.0553961
internal_weight=0 1950.91 845.626 310.759 600.071 1105.29 91.9417 1013.34 607.564 405.78 84.8245 33.4282 28.5445 278.062 456.707 335.648 269.75 182.562 245.555 32.6109 51.3963 245.451 7.1172
internal_count=6079 5772 1612 307 984 4160 636 3524 1895 1629 552 235 213 251 1198 856 1075 801 628 65 317 186 84
is_linear=0
shrinkage=0.05


Tree=19
num_leaves=19
num_cat=0
split_feature=1 0 0 1 2 1 2 0 1 0 2 0 0 2 2 2 0 1
split_gain=102.818 65.5874 19.618 13.6173 11.3753 10.6736 5.25951 15.123 3.77842 3.03994 2.88665 2.73998 2.4558 1.24857 0.867244 0.748643 0.241629 0.106326
threshold=0.0031250000000000171 0.053750000000000027 0.09791666666666661 0.088125000000000023 114.32132968549972 0.10562499999999998 116.09927122830724 0.14791666666666672 0.16937500000000005 0.10041666666666667 101.22903442879164 0.11291666666666668 0.23541666666666669 117.77376086732365 117.63403597534001 120.82671025164031 0.12708333333333335 1.0000000180025095e-35
decision_type=2 2 2 2 2 2 2 2 2 2 2 2 2 2 2 2 2 2
left_child=4 3 5 -2 9 15 7 -4 11 17 12 -8 -9 -10 -5 -3 -11 -1
right_child=1 2 6 14 -6 -7 8 10 13 16 -12 -13 -14 -15 -16 -17 -18 -19
leaf_value=0.067648535185831749 0.044988175480893802 0.034794755788341687 0.025552875928292453 0.039891465634617741 0.044988175480893802 0.025552875928292453 0.013460725495347926 0.019977089454742275 0.0036183816540675743 0.060539174944555657 0.013460725495347926 0.0036183816540675743 0.016476604125119355 -0.013196860386613541 0.034794755788341687 0.030173815858317066 0.054666768406540257 0.065520939445862708
leaf_weight=101.00379753112793 303.77019131183624 462.83991071581841 383.92266295850277 42.73694521188736 32.672627449035645 166.5997846275568 25.174486309289936 117.71654848754406 10.992381192743776 17.726355075836182 240.4478672221303 5.4396878331899634 91.575924929231405 22.521267265081406 79.557541310787201 12.394421875476835 15.15939126908779 140.27748101949692
leaf_count=75 392 947 1122 73 56 478 75 471 54 19 1167 30 597 108 226 32 46 111
internal_value=0 0.0294279 0.0246013 0.0449882 0.0605484 0.0312766 0.0198292 0.0208906 0.00603085 0.0643454 0.0144013 0.0134607 0.0194925 -0.00622396 0.0347948 0.0347948 0.0546668 0.0664116
internal_weight=0 1965.69 1539.62 426.065 306.84 641.834 897.791 833.663 64.1278 274.167 449.74 30.6142 209.292 33.5136 122.294 475.234 32.8857 241.281
internal_count=6079 5772 5081 691 307 1457 3624 3357 267 251 2235 105 1068 162 299 979 65 186
is_linear=0
shrinkage=0.05


Tree=20
num_leaves=21
num_cat=0
split_feature=1 0 0 1 2 1 0 2 0 2 2 0 1 0 0 0 2 2 1 0
split_gain=97.0531 61.1967 17.4041 13.7256 11.164 10.013 4.87592 4.77662 12.3301 3.6782 3.54267 3.33487 2.81115 2.45933 1.54746 1.36554 0.797691 0.266008 0.10769 0.0154204
threshold=0.0031250000000000171 0.053750000000000027 0.09791666666666661 0.088125000000000023 114.32132968549972 0.10562499999999998 0.37333333333333346 116.09927122830724 0.14791666666666672 101.22903442879164 74.127408029688681 0.10041666666666667 0.16937500000000005 0.46416666666666678 0.11291666666666668 0.23541666666666669 120.82671025164031 117.63403597534001 1.0000000180025095e-35 0.12708333333333335
decision_type=2 2 2 2 2 2 2 2 2 2 2 2 2 2 2 2 2 2 2 2
left_child=4 3 5 -2 11 16 7 8 -4 15 13 18 14 -8 -9 -10 -3 -5 -1 -13
right_child=1 2 6 17 -6 -7 10 12 9 -11 -12 19 -14 -15 -16 -17 -18 -19 -20 -21
leaf_value=0.065566891241251798 0.043021805060526309 0.033105299040481838 0.024086623645225042 0.038063552050504074 0.043021805060526309 0.024086623645225042 0.001214287050201962 0.013029556027255871 0.019111960317965086 0.013029556027255871 -0.057129349277079571 0.058425294468654444 0.001214287050201962 -0.027957531113438808 0.0071219215387289163 0.016070758172610479 0.02859596134285344 0.033105299040481838 0.063405365591567675 0.052541181155828579
leaf_weight=99.049641847610474 303.59201262891293 465.67256936430931 387.49579626321793 43.137415066361427 32.616236492991447 168.00370839238167 3.4842846617102605 25.314013212919239 118.97833953797817 242.33261194825172 3.5067446529865265 17.636343896389008 33.377819515764713 2.6418226584792137 5.4499778598546973 82.965166449546814 12.478658631443976 80.253715589642525 137.77375404536724 15.471518054604529
leaf_count=75 392 947 1122 73 56 478 20 75 471 1167 35 19 162 36 30 506 32 226 111 46
internal_value=0 0.0278183 0.0231888 0.0430218 0.0582253 0.0294575 0.0187157 0.0190962 0.02011 0.0141373 -0.0166676 0.0620606 0.00594911 0.00121429 0.0130296 0.019112 0.0331053 0.0331053 0.0643094 0.0525412
internal_weight=0 1978.68 1551.7 426.983 302.547 646.155 905.547 895.914 831.772 444.276 9.63285 269.931 64.1418 6.12611 30.764 201.944 478.151 123.391 236.823 33.1079
internal_count=6079 5772 5081 691 307 1457 3624 3533 3266 2144 91 251 267 56 105 977 979 299 186 65
is_linear=0
shrinkage=0.05


Tree=21
num_leaves=22
num_cat=0
split_feature=1 0 1 0 1 0 2 1 1 2 0 2 2 2 0 0 1 1 0 0 2
split_gain=91.6722 60.1283 14.8508 14.2511 10.1472 4.09832 14.8931 6.19168 3.63497 2.04256 5.09195 2.01344 4.66631 1.95223 1.18812 0.764264 1.70258 0.904616 0.276926 0.413206 0.177911
threshold=0.0018750000000000713 0.053750000000000027 0.088125000000000023 0.12124999999999998 0.10625 0.25458333333333338 98.556299308544297 0.27687500000000009 0.028125000000000015 111.59492602821716 0.09791666666666661 114.1981680061628 114.32132968549972 102.0034831513707 0.22291666666666668 0.13708333333333336 0.13437500000000005 0.05312500000000004 0.37333333333333346 0.46416666666666678 114.19075008006978
decision_type=2 2 2 2 2 2 2 2 2 2 2 2 2 2 2 2 2 2 2 2 2
left_child=11 2 -2 4 9 8 7 18 -5 -3 -11 20 -13 14 -10 16 -15 -17 -7 -20 -1
right_child=1 3 -4 5 -6 6 -8 -9 13 10 -12 12 -14 15 -16 17 -18 -19 19 -21 -22
leaf_value=0.059636545356528549 0.041858789366296278 0.031900941983693164 0.031900941983693164 0.021267099120315238 0.021267099120315238 0.01154357784214931 -0.056316771432476577 -0.022386596795163635 0.018443622391643995 0.030033345146826537 0.025501358208626312 0.053528536435832587 0.041858789366296278 0.015918956525177053 0.015918956525177053 0.013859969866496687 0.013859969866496687 0.01154357784214931 0.0030610341828210741 -0.0054215094765071616 0.054844075798536063
leaf_weight=206.60104447603226 309.39043219387531 60.814724653959274 124.37184225022793 94.516471609473228 257.84395468235016 51.155651934444904 8.7084481380879861 4.6202106550335875 112.06801502406597 471.30359576642513 110.74357378482819 24.027423799037933 23.455824956297874 73.89218370616436 47.60762120038271 38.057217001914978 32.599560379981995 206.60356438159943 5.4361151382327062 2.9818614721298218 21.368153348565102
leaf_count=190 397 121 299 326 780 293 91 52 433 961 302 16 40 208 233 147 152 941 36 41 20
internal_value=0 0.0264812 0.0418588 0.0219431 0.0260651 0.0164691 0.00526929 0.0115436 0.0178179 0.0297356 0.0281657 0.0572364 0.0478697 0.0156201 0.0184436 0.0133943 0.015919 0.011801 0.0115436 -0.00542151 0.0591873
internal_weight=0 2012.72 433.762 1578.95 900.706 678.247 72.9023 64.1938 605.345 642.862 582.047 275.452 47.4832 510.828 159.676 351.153 106.492 244.661 59.5736 8.41798 227.969
internal_count=6079 5813 696 5117 2164 2953 513 422 2440 1384 1263 266 56 2114 666 1448 360 1088 370 77 210
is_linear=0
shrinkage=0.05


Tree=22
num_leaves=18
num_cat=0
split_feature=1 0 1 0 2 1 2 0 0 1 2 0 0 2 2 1 1
split_gain=87.3117 53.2024 13.8778 13.8306 10.844 8.77803 4.05768 11.7628 3.82307 3.16359 2.46331 2.45669 1.83011 1.14818 0.833876 0.110138 0.083871
threshold=0.0031250000000000171 0.053750000000000027 0.088125000000000023 0.09791666666666661 114.32132968549972 0.10562499999999998 116.09927122830724 0.14791666666666672 0.10041666666666667 0.16937500000000005 101.22903442879164 0.11291666666666668 0.23541666666666669 117.77376086732365 120.82671025164031 1.0000000180025095e-35 0.035624999999999997
decision_type=2 2 2 2 2 2 2 2 2 2 2 2 2 2 2 2 2
left_child=4 2 -2 5 8 14 7 -5 15 11 12 -8 -9 -11 16 -1 -3
right_child=1 3 -4 6 -6 -7 9 10 -10 13 -12 -13 -14 -15 -16 -17 -18
leaf_value=0.061956249097088183 0.039534200234425991 0.030101731571316709 0.030101731571316709 0.021474091675614829 0.039534200234425991 0.021474091675614829 0.011145771575739569 0.016699569559511056 0.048803346002945863 0.0022586272574021183 0.011145771575739569 0.0022586272574021183 0.013881864529398429 -0.013394227747140176 0.025787911623465772 0.059725829746206376 0.028811262819962852
leaf_weight=95.013462752103806 302.42758592963219 217.14603517949581 125.21615669131279 393.46234890818596 32.420475080609322 170.40353366732597 25.669770419597629 121.31938575208187 33.368951246142387 11.101505581289528 245.83352202922106 5.5247927755117408 93.679890636354685 22.569683954119682 12.628333017230032 132.58124506473541 253.01219254732132
leaf_count=75 392 407 299 1122 56 478 75 471 65 54 1167 30 597 108 32 111 540
internal_value=0 0.0249299 0.0395342 0.0206693 0.0541385 0.026232 0.0167162 0.0176316 0.0580725 0.00465998 0.011925 0.0111458 0.016618 -0.00662852 0.0301017 0.060657 0.0301017
internal_weight=0 1999.99 427.644 1572.35 293.384 653.19 919.161 854.295 260.964 64.8658 460.833 31.1946 214.999 33.6712 482.787 227.595 470.158
internal_count=6079 5772 691 5081 307 1457 3624 3357 251 267 2235 105 1068 162 979 186 947
is_linear=0
shrinkage=0.05


Tree=23
num_leaves=24
num_cat=0
split_feature=1 0 1 0 1 0 2 1 2 0 2 2 2 0 0 1 0 0 2 0 1 2 2
split_gain=82.7835 52.5228 14.8377 11.0628 8.73254 3.67529 8.67181 2.80478 2.58911 4.58302 2.3099 2.00146 4.4476 1.53692 1.15034 5.16092 1.04436 0.875483 0.493006 0.333927 0.176225 0.112605 0.0851854
threshold=0.0018750000000000713 0.053750000000000027 0.088125000000000023 0.12124999999999998 0.098125000000000004 0.33875000000000005 80.81149117033307 0.028125000000000015 111.59492602821716 0.09791666666666661 102.0034831513707 114.1981680061628 114.32132968549972 0.46416666666666678 0.19041666666666671 0.11312500000000004 0.22291666666666668 0.25208333333333338 108.06451839065318 0.16041666666666668 1.0000000180025095e-35 120.58202507790769 114.19075008006978
decision_type=2 2 2 2 2 2 2 2 2 2 2 2 2 2 2 2 2 2 2 2 2 2 2
left_child=11 2 -2 4 8 7 13 19 -3 21 16 20 -13 -7 15 -12 -9 -16 -6 -5 -1 -10 -22
right_child=1 3 -4 5 18 6 -8 10 9 -11 14 12 -14 -15 17 -17 -18 -19 -20 -21 22 -23 -24
leaf_value=0.05696199539171673 0.03860924112670229 0.029096205465408503 0.029096205465408503 0.018999022828401619 0.022901927331506977 0.003222825714546817 -0.057603813818753791 0.016353318300363098 0.02702145551416257 0.022901927331506977 0.013749648995855811 0.049727866267576908 0.03860924112670229 -0.027190494052103487 0.0089254224291892108 0.0089254224291892108 0.013749648995855811 0.003222825714546817 0.018999022828401619 0.016353318300363098 0.054740598062625927 0.024961691422834772 0.05119621968483045
leaf_weight=101.92216536402702 307.6927253305912 56.345001891255379 125.96218910813332 52.123906388878822 26.552843689918518 6.3053731098771078 6.4951137714087954 114.07663471996784 443.05336391925812 108.96777078509331 155.27288380265236 23.194976642727852 23.248099833726883 3.159993514418602 64.401859626173973 135.55617079138756 94.349658600986004 4.3561463020741931 261.59250929951668 51.770315617322922 96.938704028725624 13.540615633130072 20.544966772198677
leaf_count=94 397 106 299 131 70 33 60 433 881 295 529 16 40 44 307 608 517 49 777 242 96 35 20
internal_value=0 0.0237739 0.0386092 0.0195832 0.0232001 0.0147979 -0.00891555 0.0153612 0.0268048 0.0249467 0.0137076 0.0534446 0.0440151 0.00322283 0.011146 0.012521 0.0163533 0.0053298 0.018999 0.018999 0.0554406 0.0270215 0.0541208
internal_weight=0 2031.58 433.655 1597.92 910.052 687.868 15.9605 671.908 621.907 565.562 568.013 265.849 46.4431 9.46537 359.587 290.829 208.426 68.758 288.145 103.894 219.406 456.594 117.484
internal_count=6079 5813 696 5117 2164 2953 137 2816 1317 1211 2443 266 56 77 1493 1137 950 356 847 373 210 916 116
is_linear=0
shrinkage=0.05


Tree=24
num_leaves=24
num_cat=0
split_feature=1 0 1 0 1 0 2 2 0 1 0 2 2 2 0 0 1 0 0 2 1 2 2
split_gain=78.7978 48.9093 14.8083 9.57488 8.10324 3.2683 3.3205 2.66876 4.36409 2.63076 2.1289 2.01965 1.98337 4.36485 1.15096 1.12669 4.91396 1.51927 0.354002 0.318984 0.173695 0.155705 0.0768786
threshold=0.0018750000000000713 0.053750000000000027 0.088125000000000023 0.12124999999999998 0.098125000000000004 0.37333333333333346 74.127408029688681 111.59492602821716 0.09791666666666661 0.028125000000000015 0.46416666666666678 102.0034831513707 114.1981680061628 114.32132968549972 0.22291666666666668 0.19041666666666671 0.11312500000000004 0.25208333333333338 0.16041666666666668 108.06451839065318 1.0000000180025095e-35 120.58202507790769 114.19075008006978
decision_type=2 2 2 2 2 2 2 2 2 2 2 2 2 2 2 2 2 2 2 2 2 2 2
left_child=12 2 -2 4 7 9 10 -3 21 18 -7 14 20 -14 -11 16 -13 -17 -5 -6 -1 -9 -22
right_child=1 3 -4 5 19 6 -8 8 -10 11 -12 15 13 -15 -16 17 -18 -19 -20 -21 22 -23 -24
leaf_value=0.055268580183519961 0.037140650487551517 0.027835700382014925 0.027835700382014925 0.01799158458218407 0.021689894326629329 -0.00039229348509365746 -0.056596090474019492 0.025694238663230919 0.021689894326629329 0.015450808263905758 -0.028494191979556573 0.012987079092804044 0.048018635140651626 0.037140650487551517 0.012987079092804044 0.0083339796717393517 0.0083339796717393517 -0.00039229348509365746 0.015450808263905758 0.01799158458218407 0.053014003484602161 0.023692066494930122 0.049614236855205565
leaf_weight=99.845899701118469 306.54371638596058 56.614504933357239 126.63533821702003 52.45787350833416 26.776933282613754 3.5219997242093068 3.2834184616804123 444.38399738073349 109.57474848628044 115.0210345685482 2.5366271696984768 156.17253118753433 22.797408446669579 23.123820453882217 101.20255275815725 64.733831137418747 136.20240435004234 4.474263221025466 52.36548276245594 263.1832330673933 95.137231454253197 13.589226692914961 20.150171995162964
leaf_count=94 397 106 299 131 70 20 35 881 295 433 36 529 16 40 560 307 608 51 243 777 96 35 20
internal_value=0 0.0225529 0.0371407 0.0185308 0.0218896 0.0140935 -0.0152801 0.0253882 0.0235528 0.0144955 -0.000392293 0.01291 0.0517284 0.0422953 0.0154508 0.0105233 0.0118813 0.00478668 0.0179916 0.0179916 0.0537419 0.0256942 0.0524198
internal_weight=0 2039.27 433.179 1606.09 914.123 691.972 9.34205 624.162 567.548 682.63 6.05863 577.807 261.055 45.9212 216.224 361.583 292.375 69.2081 104.823 289.96 215.133 457.973 115.287
internal_count=6079 5813 696 5117 2164 2953 91 1317 1211 2862 56 2488 266 56 993 1495 1137 358 374 847 210 916 116
is_linear=0
shrinkage=0.05


Tree=25
num_leaves=19
num_cat=0
split_feature=1 0 1 0 2 1 2 0 1 0 2 0 2 2 1 0 1 0
split_gain=75.0154 45.5493 14.7353 8.37898 7.33913 6.58423 3.67948 10.207 2.73776 2.35542 1.83609 1.56264 1.08527 0.734859 0.378597 0.446822 0.0102381 0.000955394
threshold=0.0018750000000000713 0.053750000000000027 0.088125000000000023 0.09791666666666661 114.233759308771 0.10562499999999998 116.09927122830724 0.14791666666666672 0.16937500000000005 0.11291666666666668 101.22903442879164 0.23541666666666669 117.77376086732365 120.82671025164031 0.035624999999999997 0.063750000000000043 1.0000000180025095e-35 0.081250000000000003
decision_type=2 2 2 2 2 2 2 2 2 2 2 2 2 2 2 2 2 2
left_child=4 2 -2 5 16 13 7 -5 9 -8 11 -9 -10 14 15 -3 -1 -16
right_child=1 3 -4 6 -6 -7 8 10 12 -11 -12 -13 -14 -15 17 -17 -18 -19
leaf_value=0.053659990628616261 0.035744334596886237 0.026638688119216315 0.026638688119216315 0.018173535869137059 0.035744334596886237 0.018173535869137059 0.0092321728690824712 0.014038300407745688 0.00094875755703925093 0.00094875755703925093 0.0092321728690824712 0.011564657193097145 -0.013951316827699173 0.021763077838786504 0.024532667867035864 0.025550525976053413 0.052986745564558763 0.024329693610051564
leaf_weight=97.750699445605278 305.23153242468834 64.935705468058586 127.23419816792011 407.51149524748325 24.74494931101799 173.31744089722633 26.152351453900341 124.7153310328722 11.230065882205961 5.6202109754085532 254.12022434547544 96.035779092460871 22.710535049438477 12.78454853594303 167.37914299964905 158.53084036707878 133.71465435624123 88.696835905313492
leaf_count=94 397 103 299 1130 41 478 75 473 54 30 1177 600 108 32 345 317 131 195
internal_value=0 0.0213949 0.0357443 0.017533 0.0500938 0.0218329 0.0145142 0.0153642 0.00310014 0.00923217 0.00990306 0.0138971 -0.00733466 0.0253526 0.0258934 0.0266387 0.0532711 0.0244624
internal_weight=0 2046.21 432.466 1613.74 256.21 665.645 948.096 882.383 65.7132 31.7726 474.871 220.751 33.9406 492.327 479.543 223.467 231.465 256.076
internal_count=6079 5813 696 5117 266 1470 3647 3380 267 105 2250 1073 162 992 960 420 225 540
is_linear=0
shrinkage=0.05


Tree=26
num_leaves=21
num_cat=0
split_feature=1 2 0 1 0 2 1 0 1 1 0 0 0 0 1 0 0 1 1 1
split_gain=71.1398 43.2978 49.8924 8.40987 8.34779 7.24438 5.06385 3.57469 7.91001 1.37562 4.00986 1.17057 1.0326 0.864903 0.730898 0.757626 0.201367 0.0290055 0.0110204 0.00269043
threshold=0.0018750000000000713 127.21430002418673 0.053750000000000027 0.088125000000000023 0.09791666666666661 114.233759308771 0.10562499999999998 0.25458333333333338 0.27687500000000009 0.11312500000000004 0.16708333333333333 0.37333333333333346 0.10458333333333332 0.46416666666666678 0.035624999999999997 0.063750000000000043 0.2429166666666667 0.050000000000000024 1.0000000180025095e-35 0.066249999999999962
decision_type=2 2 2 2 2 2 2 2 2 2 2 2 2 2 2 2 2 2 2 2
left_child=5 2 3 -2 6 18 14 9 11 10 -6 -9 -11 -13 15 -4 -14 -16 -1 -19
right_child=1 -3 4 -5 7 -7 -8 8 -10 12 -12 13 16 -15 17 -17 -18 19 -20 -21
leaf_value=0.05212621061183749 0.034393894150691454 -0.08153846433548706 0.025592664438018609 0.025592664438018609 0.017442942795932555 0.034393894150691454 0.017442942795932555 0.0089858731476856312 -0.030360752078821163 0.014368248283595411 0.014368248283595411 -0.0004490618745616154 0.01128573066805455 -0.01082625698755197 0.023182884280924836 0.023922962019467382 0.0089858731476856312 0.022210027452006807 0.051420233892035039 0.021831097366596653
leaf_weight=95.649419635534286 303.78041218221188 10.384532302618025 64.954418271780014 120.81182570755482 342.8590434640646 24.581101477146149 170.92998836934566 60.081287145614624 6.3207155875861636 30.187569081783295 165.69871397316456 5.3560187742114049 332.35692594945431 2.8774052932858467 63.996856674551964 158.78429254889488 7.2440641671419135 72.153758227825165 130.96919076144695 133.53561925888062
leaf_count=94 397 44 103 270 919 41 464 359 77 82 726 36 1361 41 128 317 45 148 131 296
internal_value=0 0.0202991 0.020817 0.0343939 0.0167914 0.0484887 0.0210937 0.0137922 0.0032869 0.0146848 0.0163721 0.00870824 0.0123644 -0.009884 0.0240461 0.0255927 0.0109079 0.0222533 0.0517182 0.021964
internal_weight=0 2052.31 2041.93 424.592 1617.34 251.2 664.355 952.982 74.6354 878.346 508.558 68.3147 369.789 8.23342 493.425 223.739 339.601 269.686 226.619 205.689
internal_count=6079 5813 5769 667 5102 266 1456 3646 513 3133 1645 436 1488 77 992 420 1406 572 225 444
is_linear=0
shrinkage=0.05


Tree=27
num_leaves=22
num_cat=0
split_feature=1 0 1 2 0 1 2 0 0 2 1 1 2 0 1 0 1 2 2 2 1
split_gain=67.3844 39.9622 14.3272 7.14771 6.73065 6.53995 2.77866 3.63503 2.67555 13.4459 5.41346 2.36243 1.33018 0.855994 0.56573 0.51616 0.302632 0.206897 0.0972082 0.0672251 0.011746
threshold=0.0018750000000000713 0.053750000000000027 0.088125000000000023 114.233759308771 0.12124999999999998 0.098125000000000004 111.59492602821716 0.09791666666666661 0.25458333333333338 98.556299308544297 0.27687500000000009 0.028125000000000015 102.0034831513707 0.22291666666666668 0.049375000000000009 0.13708333333333336 0.13437500000000005 120.58202507790769 108.06451839065318 109.35419907470886 1.0000000180025095e-35
decision_type=2 2 2 2 2 2 2 2 2 2 2 2 2 2 2 2 2 2 2 2 2
left_child=3 2 -2 20 5 6 -3 17 11 10 -10 -6 13 -13 19 16 -16 -8 -7 -14 -1
right_child=1 4 -4 -5 8 18 7 -9 9 -11 -12 12 14 -15 15 -17 -18 -19 -20 -21 -22
leaf_value=0.050658635781535767 0.033109869724833117 0.024254476488748983 0.024254476488748983 0.033109869724833117 0.015250757962508774 0.018469817574586024 0.022052946769276188 0.018469817574586024 0.0080673606754760405 -0.056261160048746199 -0.024096899686635077 0.013202868468062455 0.011248959188408125 0.011248959188408125 0.0097664706402280123 0.0080673606754760405 0.0089169156578520255 0.020261382171931103 0.015250757962508774 0.0097664706402280123 0.049921819377612649
leaf_weight=93.553055867552757 302.21316158771515 57.129141554236412 128.07670715451241 24.410368517041206 98.635942623019218 27.27926741540432 447.19320894777775 110.98341794312 61.662712793797255 8.5752653628587705 4.5714802518486968 117.39157347381115 30.520691111683846 49.85369686037302 62.656948179006577 222.43217650800943 33.66381661593914 13.700869247317312 267.02447180449963 14.2533733099699 128.22559647262096
leaf_count=94 397 106 299 41 326 70 881 295 370 91 52 433 108 233 169 970 152 35 777 49 131
internal_value=0 0.0192703 0.0328214 0.0469495 0.0156876 0.0184957 0.0216889 0.0198514 0.0120058 0.00306638 0.00806736 0.0130683 0.011155 0.0132029 0.00929505 0.00828398 0.00976647 0.0220529 0.0152508 0.011249 0.0502326
internal_weight=0 2057.82 430.29 246.189 1627.53 923.31 629.007 571.877 704.218 74.8095 66.2342 629.408 530.772 167.245 363.527 318.753 96.3208 460.894 294.304 44.7741 221.779
internal_count=6079 5813 696 266 5117 2164 1317 1211 2953 513 422 2440 2114 666 1448 1291 321 916 847 157 225
is_linear=0
shrinkage=0.05


Tree=28
num_leaves=17
num_cat=0
split_feature=1 2 0 2 0 1 0 1 1 0 0 1 0 1 0 0
split_gain=63.7773 39.4079 41.4635 10.0373 8.67997 7.71961 4.82358 4.0994 2.89389 7.16738 1.51086 0.469801 0.35592 0.118611 0.0900197 0.0057608
threshold=0.0031250000000000171 127.21430002418673 0.053750000000000027 114.32132968549972 0.091250000000000123 0.088125000000000023 0.10041666666666667 0.15437500000000004 0.11312500000000004 0.16708333333333333 0.087083333333333415 0.035624999999999997 0.25208333333333338 1.0000000180025095e-35 0.081250000000000003 0.2429166666666667
decision_type=2 2 2 2 2 2 2 2 2 2 2 2 2 2 2 2
left_child=3 2 5 6 7 -2 13 10 9 -6 11 -4 15 -1 -13 -10
right_child=1 -3 4 -5 8 -7 -8 -9 12 -11 -12 14 -14 -15 -16 -17
leaf_value=0.053567226815094127 0.0312291786448778 -0.079716151876251792 0.023118129242473334 0.0312291786448778 0.016093303404562203 0.023118129242473334 0.039917981304016914 0.016093303404562203 0.0096837657268376408 0.011867905830930142 0.019105815421188752 0.02207884135605509 0.0048582033517235957 0.05108842976917647 0.021111972331831041 0.0080807930033594336
leaf_weight=82.453052073717117 294.59983909130096 10.232305765151976 183.23069958388805 31.434915944933891 397.37733687460423 121.62612241506577 33.326833307743073 62.48489984869957 391.88359108567238 198.08096061646938 44.348207011818886 241.15346841514111 42.723012696951628 116.37044471502304 46.371051728725433 5.6862642839550963
leaf_count=75 392 44 331 56 1025 270 65 179 1526 929 107 513 312 111 111 33
internal_value=0 0.0181614 0.0186549 0.044297 0.0150071 0.0312292 0.0486068 0.0199182 0.0122684 0.014541 0.0221183 0.0231181 0.00919482 0.0521164 0.021112 0.00966084
internal_weight=0 2039.8 2029.57 263.585 1613.34 416.226 232.15 577.588 1035.75 595.458 515.103 470.755 440.293 198.823 287.525 397.57
internal_count=6079 5772 5728 307 5066 662 251 1241 3825 1954 1062 955 1871 186 624 1559
is_linear=0
shrinkage=0.05


Tree=29
num_leaves=20
num_cat=0
split_feature=1 2 0 1 2 0 1 0 1 0 1 0 0 1 0 0 1 1 1
split_gain=60.0897 36.1755 41.5625 8.50873 6.93993 5.95621 4.25395 2.6512 8.31958 1.15203 1.1188 2.86246 0.795758 0.718093 0.898476 0.253292 0.0275579 0.0118961 0.00294244
threshold=0.0018750000000000713 127.21430002418673 0.053750000000000027 0.088125000000000023 114.233759308771 0.09791666666666661 0.10562499999999998 0.23958333333333334 0.27687500000000009 0.37333333333333346 0.13437500000000005 0.16125000000000003 0.46416666666666678 0.035624999999999997 0.063750000000000043 0.12124999999999998 0.050000000000000024 1.0000000180025095e-35 0.066249999999999962
decision_type=2 2 2 2 2 2 2 2 2 2 2 2 2 2 2 2 2 2 2
left_child=4 2 3 -2 17 6 13 10 9 -9 11 -7 -11 14 -4 -12 -15 -1 -18
right_child=1 -3 5 -5 -6 7 -8 8 -10 12 15 -13 -14 16 -16 -17 18 -19 -20
leaf_value=0.047837475910401578 0.030684772414347302 -0.077450240023919315 0.022449246045748238 0.022449246045748238 0.030684772414347302 0.01477341333000274 0.01477341333000274 0.0082399749323721627 -0.029810454563736627 -0.0010720189437130531 0.011960583220487424 0.011960583220487424 -0.010785239815682232 0.019786024935069129 0.020665269017938904 0.0092113063920856043 0.018857620848889676 0.04707872067966979 0.01846258563637267
leaf_weight=89.241033211350441 298.83194969594479 10.010679617524145 64.889853060245514 121.95538973808289 24.045195624232292 378.10812143981457 173.13870200514793 82.731785990297794 6.7070074602961531 5.4107959866523725 69.103838205337524 198.97461466491222 2.8926522359251976 64.248827829957008 159.197355479002 223.13756655156612 72.507202699780464 122.66446924209595 134.72855730354786
leaf_count=94 397 44 103 270 41 1026 464 478 84 36 226 829 41 128 317 926 148 131 296
internal_value=0 0.0173678 0.0178293 0.0306848 0.0440018 0.0142137 0.017842 0.0117048 0.0038973 0.00823997 0.0125827 0.0138591 -0.010384 0.0206186 0.0224492 0.0100621 0.0188813 0.0473983 0.0186008
internal_weight=0 2066.57 2056.56 420.787 235.951 1635.78 668.71 967.066 97.7422 91.0352 869.324 577.083 8.30345 495.572 224.087 292.241 271.485 211.906 207.236
internal_count=6079 5813 5769 667 266 5102 1456 3646 639 555 3007 1855 77 992 420 1152 572 225 444
is_linear=0
shrinkage=0.05


Tree=30
num_leaves=22
num_cat=0
split_feature=1 2 0 1 2 0 1 0 0 0 1 1 0 1 0 0 1 1 0 1 1
split_gain=56.7594 33.1785 39.0647 8.50202 6.8372 5.36318 4.01756 2.4527 2.08775 1.29971 2.38092 1.00084 2.69814 0.69067 0.928816 0.232039 0.106418 0.0257062 0.0134529 0.0124748 0.00296678
threshold=0.0018750000000000713 127.21430002418673 0.053750000000000027 0.088125000000000023 114.233759308771 0.09791666666666661 0.10562499999999998 0.37333333333333346 0.46416666666666678 0.23958333333333334 0.27687500000000009 0.13437500000000005 0.16125000000000003 0.035624999999999997 0.063750000000000043 0.12124999999999998 0.016874999999999977 0.050000000000000024 0.33875000000000005 1.0000000180025095e-35 0.066249999999999962
decision_type=2 2 2 2 2 2 2 2 2 2 2 2 2 2 2 2 2 2 2 2 2
left_child=4 2 3 -2 19 6 13 9 -9 11 16 12 -7 14 -4 -13 -11 -15 -18 -1 -19
right_child=1 -3 5 -5 -6 7 -8 8 -10 10 -12 15 -14 17 -16 -17 18 20 -20 -21 -22
leaf_value=0.046530354916639968 0.029558614483730657 -0.075413983285418429 0.021500962705720675 0.021500962705720675 0.029558614483730657 0.013977764532327739 0.013977764532327739 -0.0016568112907628949 -0.029241500222197788 0.0087268492850549814 -0.0016568112907628949 0.011314517099270675 0.011314517099270675 0.018782003515025358 0.0197046911612642 0.0087268492850549814 0.0068109136749018896 0.017895670548573366 0.0043657092169818073 0.045744549284993996 0.017499293461180159
leaf_weight=87.212605565786362 297.03011341392994 9.7729441076517087 64.836179614067078 122.24532572925091 23.862249478697777 379.59501981735229 173.75328384339809 6.0100514441728574 3.1863349415361881 7.7073273658752433 5.6224422231316558 69.424607262015343 200.19035913050175 64.297838985919952 159.25374574959278 224.19043342769146 69.343713417649269 72.582430705428123 6.1216292157769194 119.99839240312576 135.02974011003971
leaf_count=94 397 44 103 270 41 1026 464 43 48 36 70 226 829 128 317 926 402 148 40 131 296
internal_value=0 0.016495 0.016931 0.0295586 0.0426222 0.0134433 0.0168856 0.0110699 -0.0146292 0.0113156 0.00555221 0.0119015 0.013106 0.0196051 0.021501 0.00952306 0.00872685 0.0179084 0.00661256 0.0460753 0.0176379
internal_weight=0 2070.19 2060.42 419.275 231.073 1641.15 669.753 971.392 9.19639 962.196 88.7951 873.4 579.785 496 224.09 293.615 83.1727 271.91 75.4653 207.211 207.612
internal_count=6079 5813 5769 667 266 5102 1456 3646 91 3555 548 3007 1855 992 420 1152 478 572 442 225 444
is_linear=0
shrinkage=0.05


Tree=31
num_leaves=17
num_cat=0
split_feature=1 2 0 1 0 1 0 1 1 0 2 1 0 0 0 0
split_gain=53.7125 30.5518 35.1174 9.23717 5.59519 4.82726 2.56623 7.67728 3.12312 4.22021 1.44356 0.991782 0.969239 0.781875 0.504161 0.00775533
threshold=0.0012500000000000291 127.21430002418673 0.053750000000000027 0.088125000000000023 0.086250000000000007 0.15687500000000001 0.23958333333333334 0.27687500000000009 0.11312500000000004 0.16708333333333333 114.1981680061628 0.035624999999999997 0.37333333333333346 0.46416666666666678 0.091250000000000123 0.23541666666666669
decision_type=2 2 2 2 2 2 2 2 2 2 2 2 2 2 2 2
left_child=10 2 3 -2 5 11 8 12 9 -6 -1 -4 -8 -14 -10 -16
right_child=1 -3 4 -5 6 -7 7 -9 14 -11 -12 -13 13 -15 15 -17
leaf_value=0.044208965082160726 0.029103817331148214 -0.073576180025496152 0.021006905635906809 0.021006905635906809 0.014075832770056779 0.014075832770056779 0.0074612379060053462 -0.028694147704993823 0.01110969774536749 0.01110969774536749 0.032678031491665142 0.017827906199458014 -0.001136895697493428 -0.010660568779966621 0.0078106899400833185 0.0074612379060053462
leaf_weight=175.77273820340633 298.15525548160076 9.5225435793399793 191.0686732083559 122.49521541595459 465.78144027292728 45.636623457074165 83.758802816271782 6.5289519168436518 19.774286881089211 160.55331952869892 32.098747536540031 286.77654121816158 5.4006266817450506 2.79592065513134 387.70709580183029 5.7624928653240195
leaf_count=196 403 44 344 270 1155 138 479 84 51 669 42 621 36 41 1481 25
internal_value=0 0.0157792 0.0161879 0.0290931 0.0129207 0.0171988 0.0109528 0.00323884 0.0116836 0.0139097 0.0424284 0.0200708 0.00737301 -0.00973503 0.00830971 0.0077278
internal_weight=0 2091.72 2082.2 420.65 1661.54 523.482 1138.06 98.4843 1039.58 626.335 207.871 477.845 91.9554 8.19655 413.244 393.47
internal_count=6079 5841 5797 673 5124 1103 4021 640 3381 1824 238 965 556 77 1557 1506
is_linear=0
shrinkage=0.05


Tree=32
num_leaves=23
num_cat=0
split_feature=1 2 0 1 0 1 0 0 1 2 0 1 0 1 1 0 0 1 0 1 0 0
split_gain=50.9701 28.1029 32.7609 9.25542 4.95283 4.64198 1.9534 1.96899 1.64484 1.41885 0.69038 1.2149 0.599625 1.74335 0.447668 0.973161 0.405867 0.365975 0.226062 0.020839 0.583554 0.0105701
threshold=0.0012500000000000291 127.21430002418673 0.053750000000000027 0.088125000000000023 0.12124999999999998 0.098125000000000004 0.37333333333333346 0.46416666666666678 0.028125000000000015 114.1981680061628 0.23625000000000004 0.33812500000000001 0.079583333333333409 0.04000000000000007 0.086875000000000022 0.16708333333333333 0.16041666666666668 0.0031250000000000171 0.099583333333333426 0.13437500000000005 0.20458333333333337 0.33875000000000005
decision_type=2 2 2 2 2 2 2 2 2 2 2 2 2 2 2 2 2 2 2 2 2 2
left_child=9 2 3 -2 5 12 8 -8 16 18 14 21 13 -4 15 -10 -6 -14 -1 20 -16 -12
right_child=1 -3 4 -5 6 -7 7 -9 10 -11 11 -13 17 -15 19 -17 -18 -19 -20 -21 -22 -23
leaf_value=0.044783290118553254 0.028095082709277464 -0.071911040575680651 0.020052843088785927 0.020052843088785927 0.011874545793148334 0.011874545793148334 -0.0022651154928020659 -0.028268081512248501 0.010003171981245534 0.031476492926061438 0.0063767940403134521 -0.0022651154928020659 0.017292514407687139 0.017292514407687139 0.0088514768026850352 0.0088514768026850352 0.010003171981245534 0.014986302997744306 0.041155555385696659 0.0074077779541704102 0.0078096685598086192 0.0042054010759432587
leaf_weight=87.064820557832718 296.20228636264801 9.2624817043542844 172.40545573830605 122.71287402510643 57.191831260919571 296.62715573608875 5.9849570617079717 3.0742569901049137 92.326424360275269 31.668959453701973 74.719785925000906 3.5319864302873603 12.676484033465384 143.81029897928238 106.5520099401474 76.772437617182732 56.366786956787109 315.65043400228024 84.740097209811211 221.96852569282055 20.096033170819283 6.1363648809492579
leaf_count=94 403 44 304 270 135 832 43 48 254 42 431 43 17 304 386 329 248 705 102 910 94 41
internal_value=0 0.0149888 0.0153749 0.0278739 0.0122318 0.0146242 0.00912494 -0.0139472 0.009417 0.0412014 0.0081318 0.00393823 0.0172639 0.0188178 0.00881535 0.0100032 0.0118745 0.0157672 0.042994 0.00769978 0.00821156 0.00637679
internal_weight=0 2094.07 2084.81 418.915 1665.89 941.17 724.721 9.05921 715.662 203.474 602.104 84.3881 644.543 316.216 517.715 169.099 113.559 328.327 171.805 348.617 126.648 80.8562
internal_count=6079 5841 5797 673 5124 2162 2962 91 2871 238 2488 515 1330 608 1973 583 383 722 196 1390 480 472
is_linear=0
shrinkage=0.05


Tree=33
num_leaves=17
num_cat=0
split_feature=1 2 0 2 1 0 0 1 0 1 1 0 1 0 0 0
split_gain=48.3373 25.7455 29.9975 9.36247 7.73027 5.53173 5.38474 4.76736 1.90309 1.97276 1.69212 4.8328 0.712327 0.371584 0.227021 0.00160255
threshold=0.0031250000000000171 127.21430002418673 0.053750000000000027 114.32132968549972 0.088125000000000023 0.10458333333333332 0.086250000000000007 0.15687500000000001 0.37333333333333346 0.16937500000000005 0.11312500000000004 0.16708333333333333 0.035624999999999997 0.091250000000000123 0.25208333333333338 0.2429166666666667
decision_type=2 2 2 2 2 2 2 2 2 2 2 2 2 2 2 2
left_child=3 2 4 5 -2 -1 7 12 10 -10 11 -8 -4 -12 15 -15
right_child=1 -3 6 -5 -6 -7 8 -9 9 -11 13 -13 -14 14 -16 -17
leaf_value=0.046405969939341984 0.025872925551176248 -0.070397034775887365 0.018611875710385219 0.025872925551176248 0.018611875710385219 0.034137791450082403 0.012493913725258685 0.012493913725258685 -0.0019653189249188192 -0.028009952654615457 0.009261475880496875 0.009261475880496875 0.016117782800591004 0.0071307941644631464 0.0030458685894736164 0.0062939567798159643
leaf_weight=186.79184822738171 285.59801760315895 8.9953737258911115 182.16693691909313 30.417080715298653 122.89604704082012 22.325271621346474 449.72926047444344 45.900090679526329 6.120624862611292 2.8551402986049652 19.892956435680389 200.1944605410099 287.60781899094582 400.42974098026752 37.358722127974033 5.803877241909503
leaf_count=198 392 44 328 56 270 53 1128 138 56 35 51 891 621 1526 259 33
internal_value=0 0.0140061 0.0143771 0.0377397 0.0258729 0.0424027 0.0113508 0.0155801 0.00940768 -0.0135232 0.00959254 0.0112386 0.0184794 0.00728435 0.00677582 0.00711884
internal_weight=0 2055.55 2046.55 239.534 408.494 209.117 1638.06 515.675 1122.38 8.97577 1113.41 649.924 469.775 463.485 443.592 406.234
internal_count=6079 5772 5728 307 662 251 5066 1087 3979 91 3888 2019 949 1869 1818 1559
is_linear=0
shrinkage=0.05


Tree=34
num_leaves=17
num_cat=0
split_feature=1 0 2 0 1 1 1 0 1 2 2 0 0 0 2 0
split_gain=45.2156 25.1143 10.3083 12.9183 9.23281 4.61348 2.57275 7.80159 2.31758 3.35098 1.42883 0.457741 0.342503 0.307498 0.170211 0.0514728
threshold=0.0012500000000000291 0.04291666666666661 121.58233529156188 0.086250000000000007 0.073125000000000009 0.136875 0.11312500000000004 0.16708333333333333 0.15437500000000004 122.65581113231438 114.19075008006978 0.099583333333333426 0.081250000000000003 0.091250000000000123 114.1981680061628 0.25208333333333338
decision_type=2 2 2 2 2 2 2 2 2 2 2 2 2 2 2 2
left_child=10 4 3 5 -2 12 7 -5 9 -4 11 -1 -3 -8 -12 -15
right_child=1 2 8 6 -6 -7 13 -9 -10 -11 14 -13 -14 15 -16 -17
leaf_value=0.044212314559409903 0.026134402905599846 0.018768430774828083 0.0023465847558643178 0.013467814254897804 0.018768430774828083 0.013467814254897804 0.0085051061201834224 0.0085051061201834224 -0.01587771023695279 -0.0067655627405442363 0.035298419724685247 0.038620563261738405 0.016118122514862943 0.0058798834042787171 0.02892927138249872 0.0040600430715303712
leaf_weight=66.714846298098564 177.51191589236259 499.05236656963825 22.505433678627014 469.04954834282398 95.690893515944481 61.959378451108932 16.245344638824463 209.29322607070208 37.613821089267731 9.5589411407709104 15.936175689101217 81.074886336922646 58.956500068306923 396.99985662847757 30.692611381411552 43.070867646485567
leaf_count=74 218 919 45 1155 220 169 42 944 129 32 20 102 129 1527 42 312
internal_value=0 0.0135317 0.0114025 0.0121514 0.0261344 0.0179555 0.00898017 0.0109329 -0.00745827 0.00234658 0.0387371 0.0411448 0.0187684 0.0060773 0.031106 0.00570177
internal_weight=0 2097.51 1824.31 1754.63 273.203 619.968 1134.66 678.343 69.6782 32.0644 194.419 147.79 558.009 456.316 46.6288 440.071
internal_count=6079 5841 5403 5197 438 1217 3980 2099 206 77 238 176 1048 1881 62 1839
is_linear=0
shrinkage=0.05


Tree=35
num_leaves=17
num_cat=0
split_feature=1 0 2 0 1 1 1 0 1 2 2 0 0 0 2 0
split_gain=42.7582 23.6874 9.19985 11.8187 9.1673 4.49972 2.24828 7.37725 2.13775 3.18103 1.39184 0.463234 0.440454 0.286416 0.1684 0.0463514
threshold=0.0012500000000000291 0.04291666666666661 121.58233529156188 0.086250000000000007 0.073125000000000009 0.136875 0.11312500000000004 0.14208333333333337 0.15437500000000004 122.65581113231438 114.19075008006978 0.099583333333333426 0.081250000000000003 0.091250000000000123 114.1981680061628 0.25208333333333338
decision_type=2 2 2 2 2 2 2 2 2 2 2 2 2 2 2 2
left_child=10 4 3 5 -2 12 7 -5 9 -4 11 -1 -3 -8 -12 -15
right_child=1 2 8 6 -6 -7 13 -9 -10 -11 14 -13 -14 15 -16 -17
leaf_value=0.043152225235752295 0.025235859632132804 0.018018895665612197 0.0022336040320606043 0.012772493556247788 0.018018895665612197 0.012772493556247788 0.0080378398279722305 0.0080378398279722305 -0.015156132109906718 -0.006461264038923057 0.034245099524277865 0.037460255879765453 0.015395694610929996 0.0055705999789571322 0.027852858664521321 0.0038460544569115167
leaf_weight=64.980534613132477 176.19887737929821 498.59208579361439 22.508575990796089 399.31986999511719 95.772457793354988 62.115643665194511 16.279529914259911 281.06468522548676 37.438936427235603 9.5523289889097196 15.613347113132475 79.448717653751373 59.007969051599503 398.06142219901085 30.295133873820305 43.190740711987019
leaf_count=74 218 919 45 915 220 169 42 1184 129 32 20 102 129 1527 42 312
internal_value=0 0.0128611 0.0108019 0.0115074 0.0252359 0.0170633 0.00848169 0.0103042 -0.00704023 0.0022336 0.0376106 0.0400211 0.0180189 0.00577146 0.0300268 0.0054018
internal_weight=0 2099.1 1827.13 1757.63 271.971 619.716 1137.92 680.385 69.4998 32.0609 190.338 144.429 557.6 457.532 45.9085 441.252
internal_count=6079 5841 5403 5197 438 1217 3980 2099 206 77 238 176 1048 1881 62 1839
is_linear=0
shrinkage=0.05


Tree=36
num_leaves=20
num_cat=0
split_feature=1 2 0 1 0 1 0 1 2 1 0 0 0 0 0 2 0 0 0
split_gain=40.3641 23.2722 25.873 5.74447 5.1479 7.35551 1.94968 7.01832 1.35453 1.33609 3.5833 0.7685 0.702933 0.803832 0.467875 0.166069 0.021552 0.0106654 0.0013043
threshold=0.0012500000000000291 127.21430002418673 0.04291666666666661 0.073125000000000009 0.081250000000000003 0.13562500000000002 0.23958333333333334 0.27687500000000009 114.19075008006978 0.11312500000000004 0.14208333333333337 0.091250000000000123 0.37333333333333346 0.46416666666666678 0.099583333333333426 114.1981680061628 0.053750000000000027 0.23541666666666669 0.054583333333333435
decision_type=2 2 2 2 2 2 2 2 2 2 2 2 2 2 2 2 2 2 2
left_child=8 2 3 -2 5 16 9 12 14 10 -6 -11 -8 -14 -1 -10 -4 -13 -18
right_child=1 -3 4 -5 6 -7 7 -9 15 11 -12 17 13 -15 -16 -17 18 -19 -20
leaf_value=0.042116196174282243 0.02437131075979896 -0.069204403191749392 0.017390192329515469 0.017390192329515469 0.011406525140654862 0.011406525140654862 0.0055207130004392008 -0.028316342372913712 0.03321573662917443 0.0087908471430681954 0.0087908471430681954 0.0059969649773671868 -0.0018504034151080322 -0.011397814686237255 0.036328138938602796 0.026811350899345082 0.016906943804600873 0.0055207130004392008 0.016450963604795161
leaf_weight=63.293302312493324 174.88845589756966 8.7364393919706327 131.73244282603264 91.055873870849609 450.97101265192032 71.622808918356895 85.560884550213814 6.4111377336084834 15.300415694713591 47.87762662768364 235.31417734920979 393.6922335922718 5.3948093727231008 2.7170999832451344 77.869111239910126 29.908400416374207 16.3730309009552 5.8589673787355414 372.05890752375126
leaf_count=74 218 44 214 197 1024 208 479 84 20 120 909 1481 36 41 102 42 32 25 729
internal_value=0 0.0122316 0.0125717 0.0243713 0.0104091 0.0142428 0.00857023 0.00188064 0.0365111 0.00916078 0.0105467 0.00703497 0.00552071 -0.00922152 0.0389233 0.0289788 0.0173902 0.00591664 0.0164702
internal_weight=0 2100.27 2091.53 265.944 1825.59 591.787 1233.8 100.084 186.371 1133.71 686.285 447.429 93.6728 8.11191 141.162 45.2088 520.164 399.551 388.432
internal_count=6079 5841 5797 415 5382 1183 4199 640 238 3559 1933 1626 556 77 176 62 975 1506 761
is_linear=0
shrinkage=0.05


Tree=37
num_leaves=18
num_cat=0
split_feature=1 2 0 2 1 0 0 1 0 0 1 0 0 1 0 0 0
split_gain=38.1132 21.3964 23.9888 8.7717 7.15477 5.71118 3.34122 2.44277 1.54134 1.90525 1.23898 3.6563 1.03969 0.684225 0.1643 0.0106676 0.00132773
threshold=0.0031250000000000171 127.21430002418673 0.053750000000000027 114.32132968549972 0.088125000000000023 0.10458333333333332 0.091250000000000123 0.15437500000000004 0.37333333333333346 0.46416666666666678 0.11312500000000004 0.16708333333333333 0.087083333333333415 0.035624999999999997 0.25208333333333338 0.081250000000000003 0.2429166666666667
decision_type=2 2 2 2 2 2 2 2 2 2 2 2 2 2 2 2 2
left_child=3 2 4 5 -2 -1 7 12 10 -10 11 -8 13 -4 16 -15 -12
right_child=1 -3 6 -5 -6 -7 8 -9 9 -11 14 -13 -14 15 -16 -17 -18
leaf_value=0.042669216362742568 0.022309833520709955 -0.067927744394388201 0.015690948498888517 0.022309833520709955 0.015690948498888517 0.030228503680377307 0.00976551544279948 0.00976551544279948 -0.0028460984190378444 -0.02809384118557099 0.0058896925923162154 0.0073192836037976527 0.01188710779805238 0.014022505739962455 0.0024271799084889553 0.013501043910651239 0.0051330883367049045
leaf_weight=170.29956331849098 278.58826197683811 8.4625483602285367 182.14223600924015 29.599386379122734 123.29363290965557 22.340082943439484 407.85038158297539 63.935831129550934 5.9525605365633947 2.9738207459449768 404.68803450465202 203.73247554898262 44.962274238467216 243.97314850986004 37.636550612747669 47.289307966828346 5.8827309608459464
leaf_count=198 392 44 331 56 270 53 1025 179 43 48 1526 891 107 513 259 111 33
internal_value=0 0.011413 0.0117401 0.0332067 0.0223098 0.0381472 0.00907206 0.0121193 0.00741175 -0.0132782 0.00758602 0.00904956 0.0140087 0.015115 0.00558901 0.013501 0.00587885
internal_weight=0 2061.36 2052.9 222.239 401.882 192.64 1651.02 582.303 1068.72 8.92638 1059.79 611.583 518.367 473.405 448.207 291.262 410.571
internal_count=6079 5772 5728 307 662 251 5066 1241 3825 91 3734 1916 1062 955 1818 624 1559
is_linear=0
shrinkage=0.05


Tree=38
num_leaves=17
num_cat=0
split_feature=1 0 1 2 0 1 1 2 1 0 2 0 0 0 2 0
split_gain=35.376 20.366 8.48434 7.92811 9.03155 4.07672 1.65702 2.97675 1.58727 6.31525 1.32922 0.558025 0.490654 0.231961 0.158121 0.017477
threshold=0.0012500000000000291 0.04291666666666661 0.073125000000000009 121.58233529156188 0.086250000000000007 0.136875 0.15437500000000004 122.65581113231438 0.11312500000000004 0.16708333333333333 114.19075008006978 0.081250000000000003 0.099583333333333426 0.091250000000000123 114.1981680061628 0.25208333333333338
decision_type=2 2 2 2 2 2 2 2 2 2 2 2 2 2 2 2
left_child=10 2 -2 4 5 11 7 -5 9 -6 12 -3 -1 -10 -12 -15
right_child=1 3 -4 6 8 -7 -8 -9 13 -11 14 -13 -14 15 -16 -17
leaf_value=0.040069253557014087 0.022642838725966015 0.015896669733753671 0.015896669733753671 0.0011788936516612227 0.01092319795134979 0.01092319795134979 -0.014633156747555859 -0.0068784563250346431 0.0068028295335773557 0.0068028295335773557 0.030902399134416544 0.01340993384255173 0.033995106536757927 0.0046612902686858021 0.024524105116488976 0.0036038213299557464
leaf_weight=60.004644975066185 172.35924769937992 496.72438071668148 95.552069500088692 22.528555527329445 472.50171259045601 62.495769068598747 37.153621949255466 9.5734775811433774 16.386644974350929 212.68765930086374 14.609642013907431 59.098049804568291 74.554046049714088 401.17872958630323 29.013142049312592 43.288489300757647
leaf_count=74 218 919 220 45 1155 169 129 32 42 944 20 129 102 1527 42 312
internal_value=0 0.0110408 0.0226428 0.0091505 0.00980188 0.0146721 -0.00744409 0.000876244 0.00717426 0.00870032 0.0342449 0.0158967 0.0367038 0.00490534 0.0266603 0.0045583
internal_weight=0 2101.53 267.911 1833.62 1764.36 618.318 69.2557 32.102 1146.04 685.189 178.181 555.822 134.559 460.854 43.6228 444.467
internal_count=6079 5841 438 5403 5197 1217 206 77 3980 2099 238 1048 176 1881 62 1839
is_linear=0
shrinkage=0.05


Tree=39
num_leaves=21
num_cat=0
split_feature=1 2 0 1 0 1 0 1 2 1 0 0 0 0 0 0 1 2 0 0
split_gain=33.3091 19.6685 22.2214 5.56374 3.55674 6.21098 1.59194 6.6237 1.28798 1.20638 3.05309 0.561457 0.810368 0.491731 0.438409 0.167177 0.571552 0.154426 0.0468725 0.013268
threshold=0.0012500000000000291 127.21430002418673 0.04291666666666661 0.073125000000000009 0.080416666666666595 0.13562500000000002 0.23958333333333334 0.27687500000000009 114.19075008006978 0.11312500000000004 0.14208333333333337 0.37333333333333346 0.46416666666666678 0.099583333333333426 0.091250000000000123 0.053750000000000027 0.04000000000000007 114.1981680061628 0.07541666666666659 0.23541666666666669
decision_type=2 2 2 2 2 2 2 2 2 2 2 2 2 2 2 2 2 2 2 2
left_child=8 2 3 -2 5 15 9 11 13 10 -6 -8 -13 -1 -11 -4 18 -10 -17 -16
right_child=1 -3 4 -5 6 -7 7 -9 17 14 -12 12 -14 -15 19 16 -18 -19 -20 -21
leaf_value=0.039093252663556489 0.021856115686947036 -0.066834476337854762 0.015333120261821168 0.015333120261821168 0.0096918494726676001 0.0096918494726676001 0.0045677216354324075 -0.028020020144253428 0.029945217903399237 0.0074841849863696158 0.0074841849863696158 -0.0020872509236450096 -0.011726149254410512 0.032942087703069223 0.0051554318566640941 0.014736335425344374 0.012512484867244385 0.023588390856154801 0.013624410146294381 0.0045677216354324075
leaf_weight=58.467035338282585 171.08553847670555 8.1914279311895353 130.2746647298336 91.039618209004402 465.46376240253448 71.209932237863541 86.434650845825672 6.285645928233861 14.330019041895865 49.613012388348579 237.95810015499592 5.3945914879441244 2.638912245631218 73.127190947532654 396.4951386153698 147.50311550498009 198.46037411689758 28.664886280894279 28.146018549799919 5.9069473892450324
leaf_count=74 218 44 214 197 1049 205 479 84 20 126 909 36 41 102 1481 258 416 42 59 25
internal_value=0 0.0104919 0.0107944 0.0218561 0.00881012 0.012065 0.00731874 0.00129109 0.0332203 0.00784435 0.00913946 0.00456772 -0.00874222 0.035675 0.00582891 0.0153331 0.0141396 0.0257071 0.0147363 0.00507556
internal_weight=0 2102.1 2093.91 262.125 1831.78 575.594 1256.19 100.754 174.589 1155.44 703.422 94.4682 8.0335 131.594 452.015 504.384 374.11 42.9949 175.649 402.402
internal_count=6079 5841 5797 415 5382 1152 4230 640 238 3590 1958 556 77 176 1632 947 733 62 317 1506
is_linear=0
shrinkage=0.05


Tree=40
num_leaves=18
num_cat=0
split_feature=1 0 1 2 0 0 1 2 1 0 1 0 2 0 2 1 1
split_gain=31.3265 18.5238 10.1499 6.47943 5.446 1.63884 8.21161 2.53772 4.18903 3.4648 1.55069 5.43387 3.69373 2.03947 1.78887 0.143782 6.30555e-06
threshold=0.0018750000000000713 0.053750000000000027 0.088125000000000023 114.32132968549972 0.10041666666666667 0.23958333333333334 0.27687500000000009 89.446295755614742 0.094375000000000001 0.25208333333333338 0.15062500000000004 0.14791666666666672 110.27638023058601 0.086250000000000007 95.460756215052541 1.0000000180025095e-35 0.38562500000000011
decision_type=2 2 2 2 2 2 2 2 2 2 2 2 2 2 2 2 2
left_child=3 2 -2 4 15 10 7 -7 -9 -10 11 12 -3 -14 -12 -1 -8
right_child=1 5 -4 -5 -6 6 16 8 9 -11 14 -13 13 -15 -16 -17 -18
leaf_value=0.042350048916359316 0.020534516369105998 0.013511977920109115 0.013511977920109115 0.020534516369105998 0.028010086035429982 0.0046741471457687643 -0.054617143939439644 -0.0003453862699073836 -0.0104357338141825 -0.02499112425614897 0.0068953342899172963 0.0068953342899172963 0.011418475422282835 0.0090591256332986977 0.0046741471457687643 0.039182744118913593 -0.054721788793178711
leaf_weight=61.539522022008896 278.81283181905746 148.1208356320858 128.87934529781342 20.60595740377903 20.662458911538124 31.38395793363452 3.8378358706831923 33.450316205620766 10.495690494775774 19.120731212198734 37.73289543390274 269.99246209859848 450.03901916742325 364.4013359695673 306.227962680161 85.773529782891273 2.3036310076713562
leaf_count=75 397 351 299 40 43 181 53 174 54 146 117 1075 909 921 1105 108 31
internal_value=0 0.0098943 0.0194534 0.0311747 0.0354857 0.00757056 0.00138292 0.00467415 -0.00536492 -0.0205261 0.00796537 0.00879376 0.0112229 0.00932497 0.00499691 0.0405059 -0.0546564
internal_weight=0 2084.8 407.692 188.581 167.976 1677.11 100.592 94.4507 63.0667 29.6164 1576.51 1232.55 962.561 814.44 343.961 147.313 6.14147
internal_count=6079 5813 696 266 226 5117 639 555 374 200 4478 3256 2181 1830 1222 183 84
is_linear=0
shrinkage=0.05


Tree=41
num_leaves=19
num_cat=0
split_feature=1 2 0 1 0 1 0 0 2 1 0 0 0 0 1 2 0 0
split_gain=28.8193 18.1798 19.9453 5.32095 2.77008 5.72465 1.31388 1.86885 1.2467 0.707607 3.35208 0.519635 0.331109 0.17847 0.546034 0.145154 0.048473 0.0391322
threshold=0.0012500000000000291 127.21430002418673 0.04291666666666661 0.073125000000000009 0.080416666666666595 0.13562500000000002 0.37333333333333346 0.46416666666666678 114.19075008006978 0.11312500000000004 0.14208333333333337 0.099583333333333426 0.091250000000000123 0.053750000000000027 0.04000000000000007 114.1981680061628 0.25208333333333338 0.07541666666666659
decision_type=2 2 2 2 2 2 2 2 2 2 2 2 2 2 2 2 2 2
left_child=8 2 3 -2 5 13 9 -8 11 10 -6 -1 -11 -4 17 -10 -14 -15
right_child=1 -3 4 -5 6 -7 7 -9 15 12 -12 -13 16 14 -16 -17 -18 -19
leaf_value=0.037159678089597081 0.020273206324178478 -0.065934254057037331 0.014087404748941632 0.014087404748941632 0.0086848400708557007 0.0086848400708557007 -0.002968088140110021 -0.028081030547765531 0.027766037185696014 0.0064844787003363671 0.0064844787003363671 0.030682045730234715 0.004778099898664994 0.013494622085029981 0.011386122409898667 0.021481062678890814 0.0028968717426426944 0.012440372247464325
leaf_weight=55.497879907488823 168.62339586019516 7.9599639773368827 129.25987122952938 90.968834429979324 466.27613452076912 71.404522821307182 5.9212939441204053 2.8795285671949387 13.709547430276869 49.763578489422798 283.65600015223026 70.02472311258316 414.35899688303471 147.03209859132767 198.52549926936626 27.846850425004959 37.326406426727772 28.077341943979263
leaf_count=74 218 44 214 197 1049 205 43 48 20 126 1146 102 1559 258 416 42 259 59
internal_value=0 0.00948551 0.00977219 0.0202732 0.0079016 0.0107797 0.00658997 -0.0126615 0.0310609 0.00672537 0.00769761 0.033546 0.00527135 0.0140874 0.0129018 0.0235545 0.00462264 0.0134946
